digraph Tree {
node [shape=box, fontname="helvetica"] ;
edge [fontname="helvetica"] ;
0 [label="smart_9_raw <= 31.5\ngini = 0.0\nsamples = 11129142\nvalue = [17601231, 562]"] ;
1 [label="smart_197_raw <= 48.0\ngini = 0.006\nsamples = 582\nvalue = [959, 3]"] ;
0 -> 1 [labeldistance=2.5, labelangle=45, headlabel="True"] ;
2 [label="smart_194_raw <= 38.5\ngini = 0.004\nsamples = 581\nvalue = [959, 2]"] ;
1 -> 2 ;
3 [label="smart_9_raw <= 18.5\ngini = 0.002\nsamples = 544\nvalue = [894, 1]"] ;
2 -> 3 ;
4 [label="smart_9_raw <= 17.0\ngini = 0.005\nsamples = 224\nvalue = [382, 1]"] ;
3 -> 4 ;
5 [label="gini = 0.0\nsamples = 221\nvalue = [380, 0]"] ;
4 -> 5 ;
6 [label="smart_194_raw <= 35.0\ngini = 0.444\nsamples = 3\nvalue = [2, 1]"] ;
4 -> 6 ;
7 [label="gini = 0.5\nsamples = 2\nvalue = [1, 1]"] ;
6 -> 7 ;
8 [label="gini = 0.0\nsamples = 1\nvalue = [1, 0]"] ;
6 -> 8 ;
9 [label="gini = 0.0\nsamples = 320\nvalue = [512, 0]"] ;
3 -> 9 ;
10 [label="smart_9_raw <= 24.5\ngini = 0.03\nsamples = 37\nvalue = [65, 1]"] ;
2 -> 10 ;
11 [label="gini = 0.0\nsamples = 11\nvalue = [21, 0]"] ;
10 -> 11 ;
12 [label="smart_194_raw <= 39.5\ngini = 0.043\nsamples = 26\nvalue = [44, 1]"] ;
10 -> 12 ;
13 [label="gini = 0.375\nsamples = 4\nvalue = [3, 1]"] ;
12 -> 13 ;
14 [label="gini = 0.0\nsamples = 22\nvalue = [41, 0]"] ;
12 -> 14 ;
15 [label="gini = 0.0\nsamples = 1\nvalue = [0, 1]"] ;
1 -> 15 ;
16 [label="smart_197_raw <= 93656.0\ngini = 0.0\nsamples = 11128560\nvalue = [17600272, 559]"] ;
0 -> 16 [labeldistance=2.5, labelangle=-45, headlabel="False"] ;
17 [label="smart_198_raw <= 116.0\ngini = 0.0\nsamples = 11128559\nvalue = [17600272, 558]"] ;
16 -> 17 ;
18 [label="smart_197_raw <= 12.0\ngini = 0.0\nsamples = 11126908\nvalue = [17597725, 510]"] ;
17 -> 18 ;
19 [label="smart_5_raw <= 7920.0\ngini = 0.0\nsamples = 11091961\nvalue = [17542426, 435]"] ;
18 -> 19 ;
20 [label="smart_5_raw <= 47.5\ngini = 0.0\nsamples = 11075029\nvalue = [17515904, 360]"] ;
19 -> 20 ;
21 [label="smart_9_raw <= 96.5\ngini = 0.0\nsamples = 10946579\nvalue = [17312475, 255]"] ;
20 -> 21 ;
22 [label="smart_188_raw <= 0.5\ngini = 0.001\nsamples = 4549\nvalue = [7119, 3]"] ;
21 -> 22 ;
23 [label="smart_9_raw <= 95.5\ngini = 0.001\nsamples = 4543\nvalue = [7111, 3]"] ;
22 -> 23 ;
24 [label="smart_9_raw <= 87.5\ngini = 0.001\nsamples = 4465\nvalue = [6994, 2]"] ;
23 -> 24 ;
25 [label="gini = 0.0\nsamples = 3756\nvalue = [5872, 0]"] ;
24 -> 25 ;
26 [label="smart_194_raw <= 27.5\ngini = 0.004\nsamples = 709\nvalue = [1122, 2]"] ;
24 -> 26 ;
27 [label="smart_9_raw <= 88.5\ngini = 0.011\nsamples = 232\nvalue = [359, 2]"] ;
26 -> 27 ;
28 [label="smart_194_raw <= 26.5\ngini = 0.128\nsamples = 22\nvalue = [27, 2]"] ;
27 -> 28 ;
29 [label="gini = 0.0\nsamples = 13\nvalue = [17, 0]"] ;
28 -> 29 ;
30 [label="gini = 0.278\nsamples = 9\nvalue = [10, 2]"] ;
28 -> 30 ;
31 [label="gini = 0.0\nsamples = 210\nvalue = [332, 0]"] ;
27 -> 31 ;
32 [label="gini = 0.0\nsamples = 477\nvalue = [763, 0]"] ;
26 -> 32 ;
33 [label="smart_194_raw <= 29.5\ngini = 0.017\nsamples = 78\nvalue = [117, 1]"] ;
23 -> 33 ;
34 [label="smart_194_raw <= 28.5\ngini = 0.044\nsamples = 27\nvalue = [43, 1]"] ;
33 -> 34 ;
35 [label="gini = 0.0\nsamples = 25\nvalue = [42, 0]"] ;
34 -> 35 ;
36 [label="gini = 0.5\nsamples = 2\nvalue = [1, 1]"] ;
34 -> 36 ;
37 [label="gini = 0.0\nsamples = 51\nvalue = [74, 0]"] ;
33 -> 37 ;
38 [label="gini = 0.0\nsamples = 6\nvalue = [8, 0]"] ;
22 -> 38 ;
39 [label="smart_198_raw <= 4.0\ngini = 0.0\nsamples = 10942030\nvalue = [17305356, 252]"] ;
21 -> 39 ;
40 [label="smart_5_raw <= 15.5\ngini = 0.0\nsamples = 10877412\nvalue = [17203369, 232]"] ;
39 -> 40 ;
41 [label="smart_187_raw <= 847.0\ngini = 0.0\nsamples = 10794226\nvalue = [17071481, 217]"] ;
40 -> 41 ;
42 [label="smart_9_raw <= 51310.5\ngini = 0.0\nsamples = 10793984\nvalue = [17071118, 212]"] ;
41 -> 42 ;
43 [label="smart_188_raw <= 23.5\ngini = 0.0\nsamples = 10788032\nvalue = [17061753, 209]"] ;
42 -> 43 ;
44 [label="smart_194_raw <= 41.5\ngini = 0.0\nsamples = 10579084\nvalue = [16730863, 187]"] ;
43 -> 44 ;
45 [label="smart_188_raw <= 0.5\ngini = 0.0\nsamples = 10219561\nvalue = [16161413, 171]"] ;
44 -> 45 ;
46 [label="smart_187_raw <= 17.5\ngini = 0.0\nsamples = 10184783\nvalue = [16106560, 171]"] ;
45 -> 46 ;
47 [label="smart_187_raw <= 7.5\ngini = 0.0\nsamples = 10182277\nvalue = [16102616, 166]"] ;
46 -> 47 ;
48 [label="smart_5_raw <= 0.5\ngini = 0.0\nsamples = 10174851\nvalue = [16090814, 163]"] ;
47 -> 48 ;
49 [label="smart_187_raw <= 0.5\ngini = 0.0\nsamples = 10035503\nvalue = [15870386, 163]"] ;
48 -> 49 ;
50 [label="smart_194_raw <= 22.5\ngini = 0.0\nsamples = 9978634\nvalue = [15780417, 161]"] ;
49 -> 50 ;
51 [label="smart_194_raw <= 18.5\ngini = 0.0\nsamples = 1822505\nvalue = [2882275, 48]"] ;
50 -> 51 ;
52 [label="smart_194_raw <= 16.5\ngini = 0.0\nsamples = 261192\nvalue = [412896, 10]"] ;
51 -> 52 ;
53 [label="gini = 0.0\nsamples = 38608\nvalue = [61067, 0]"] ;
52 -> 53 ;
54 [label="smart_194_raw <= 17.5\ngini = 0.0\nsamples = 222584\nvalue = [351829, 10]"] ;
52 -> 54 ;
55 [label="smart_9_raw <= 35628.5\ngini = 0.0\nsamples = 63379\nvalue = [100259, 2]"] ;
54 -> 55 ;
56 [label="smart_9_raw <= 35627.5\ngini = 0.0\nsamples = 9620\nvalue = [15096, 2]"] ;
55 -> 56 ;
57 [label="gini = 0.0\nsamples = 9619\nvalue = [15096, 0]"] ;
56 -> 57 ;
58 [label="gini = 0.0\nsamples = 1\nvalue = [0, 2]"] ;
56 -> 58 ;
59 [label="gini = 0.0\nsamples = 53759\nvalue = [85163, 0]"] ;
55 -> 59 ;
60 [label="smart_9_raw <= 37189.5\ngini = 0.0\nsamples = 159205\nvalue = [251570, 8]"] ;
54 -> 60 ;
61 [label="gini = 0.0\nsamples = 37482\nvalue = [59174, 0]"] ;
60 -> 61 ;
62 [label="smart_9_raw <= 37190.5\ngini = 0.0\nsamples = 121723\nvalue = [192396, 8]"] ;
60 -> 62 ;
63 [label="gini = 0.375\nsamples = 6\nvalue = [6, 2]"] ;
62 -> 63 ;
64 [label="smart_9_raw <= 38729.5\ngini = 0.0\nsamples = 121717\nvalue = [192390, 6]"] ;
62 -> 64 ;
65 [label="smart_9_raw <= 38728.5\ngini = 0.0\nsamples = 9466\nvalue = [15077, 2]"] ;
64 -> 65 ;
66 [label="gini = 0.0\nsamples = 9459\nvalue = [15068, 0]"] ;
65 -> 66 ;
67 [label="gini = 0.298\nsamples = 7\nvalue = [9, 2]"] ;
65 -> 67 ;
68 [label="smart_9_raw <= 44424.5\ngini = 0.0\nsamples = 112251\nvalue = [177313, 4]"] ;
64 -> 68 ;
69 [label="smart_9_raw <= 40896.5\ngini = 0.0\nsamples = 60521\nvalue = [95574, 1]"] ;
68 -> 69 ;
70 [label="smart_9_raw <= 40895.5\ngini = 0.0\nsamples = 14581\nvalue = [23041, 1]"] ;
69 -> 70 ;
71 [label="gini = 0.0\nsamples = 14564\nvalue = [23015, 0]"] ;
70 -> 71 ;
72 [label="gini = 0.071\nsamples = 17\nvalue = [26, 1]"] ;
70 -> 72 ;
73 [label="gini = 0.0\nsamples = 45940\nvalue = [72533, 0]"] ;
69 -> 73 ;
74 [label="smart_9_raw <= 44425.5\ngini = 0.0\nsamples = 51730\nvalue = [81739, 3]"] ;
68 -> 74 ;
75 [label="gini = 0.078\nsamples = 28\nvalue = [47, 2]"] ;
74 -> 75 ;
76 [label="smart_9_raw <= 48433.5\ngini = 0.0\nsamples = 51702\nvalue = [81692, 1]"] ;
74 -> 76 ;
77 [label="gini = 0.0\nsamples = 36994\nvalue = [58385, 0]"] ;
76 -> 77 ;
78 [label="smart_9_raw <= 48434.5\ngini = 0.0\nsamples = 14708\nvalue = [23307, 1]"] ;
76 -> 78 ;
79 [label="gini = 0.219\nsamples = 6\nvalue = [7, 1]"] ;
78 -> 79 ;
80 [label="gini = 0.0\nsamples = 14702\nvalue = [23300, 0]"] ;
78 -> 80 ;
81 [label="smart_9_raw <= 39616.5\ngini = 0.0\nsamples = 1561313\nvalue = [2469379, 38]"] ;
51 -> 81 ;
82 [label="smart_9_raw <= 2053.5\ngini = 0.0\nsamples = 993137\nvalue = [1571128, 15]"] ;
81 -> 82 ;
83 [label="smart_194_raw <= 21.5\ngini = 0.0\nsamples = 42870\nvalue = [68043, 4]"] ;
82 -> 83 ;
84 [label="smart_194_raw <= 20.5\ngini = 0.0\nsamples = 27073\nvalue = [42930, 1]"] ;
83 -> 84 ;
85 [label="smart_194_raw <= 19.5\ngini = 0.0\nsamples = 14658\nvalue = [23304, 1]"] ;
84 -> 85 ;
86 [label="gini = 0.0\nsamples = 5437\nvalue = [8663, 0]"] ;
85 -> 86 ;
87 [label="smart_9_raw <= 1109.5\ngini = 0.0\nsamples = 9221\nvalue = [14641, 1]"] ;
85 -> 87 ;
88 [label="smart_9_raw <= 1108.5\ngini = 0.0\nsamples = 3369\nvalue = [5385, 1]"] ;
87 -> 88 ;
89 [label="gini = 0.0\nsamples = 3363\nvalue = [5377, 0]"] ;
88 -> 89 ;
90 [label="gini = 0.198\nsamples = 6\nvalue = [8, 1]"] ;
88 -> 90 ;
91 [label="gini = 0.0\nsamples = 5852\nvalue = [9256, 0]"] ;
87 -> 91 ;
92 [label="gini = 0.0\nsamples = 12415\nvalue = [19626, 0]"] ;
84 -> 92 ;
93 [label="smart_9_raw <= 2052.5\ngini = 0.0\nsamples = 15797\nvalue = [25113, 3]"] ;
83 -> 93 ;
94 [label="gini = 0.0\nsamples = 15788\nvalue = [25104, 0]"] ;
93 -> 94 ;
95 [label="gini = 0.375\nsamples = 9\nvalue = [9, 3]"] ;
93 -> 95 ;
96 [label="smart_194_raw <= 19.5\ngini = 0.0\nsamples = 950267\nvalue = [1503085, 11]"] ;
82 -> 96 ;
97 [label="gini = 0.0\nsamples = 139227\nvalue = [219862, 0]"] ;
96 -> 97 ;
98 [label="smart_9_raw <= 18580.5\ngini = 0.0\nsamples = 811040\nvalue = [1283223, 11]"] ;
96 -> 98 ;
99 [label="smart_194_raw <= 21.5\ngini = 0.0\nsamples = 298384\nvalue = [471077, 9]"] ;
98 -> 99 ;
100 [label="smart_194_raw <= 20.5\ngini = 0.0\nsamples = 182115\nvalue = [287701, 7]"] ;
99 -> 100 ;
101 [label="smart_9_raw <= 9953.5\ngini = 0.0\nsamples = 88219\nvalue = [139638, 2]"] ;
100 -> 101 ;
102 [label="smart_9_raw <= 9952.5\ngini = 0.0\nsamples = 38747\nvalue = [61350, 2]"] ;
101 -> 102 ;
103 [label="gini = 0.0\nsamples = 38739\nvalue = [61341, 0]"] ;
102 -> 103 ;
104 [label="gini = 0.298\nsamples = 8\nvalue = [9, 2]"] ;
102 -> 104 ;
105 [label="gini = 0.0\nsamples = 49472\nvalue = [78288, 0]"] ;
101 -> 105 ;
106 [label="smart_9_raw <= 18579.5\ngini = 0.0\nsamples = 93896\nvalue = [148063, 5]"] ;
100 -> 106 ;
107 [label="smart_9_raw <= 11106.5\ngini = 0.0\nsamples = 93889\nvalue = [148052, 2]"] ;
106 -> 107 ;
108 [label="gini = 0.0\nsamples = 46897\nvalue = [74049, 0]"] ;
107 -> 108 ;
109 [label="smart_9_raw <= 11107.5\ngini = 0.0\nsamples = 46992\nvalue = [74003, 2]"] ;
107 -> 109 ;
110 [label="gini = 0.298\nsamples = 7\nvalue = [9, 2]"] ;
109 -> 110 ;
111 [label="gini = 0.0\nsamples = 46985\nvalue = [73994, 0]"] ;
109 -> 111 ;
112 [label="gini = 0.337\nsamples = 7\nvalue = [11, 3]"] ;
106 -> 112 ;
113 [label="smart_9_raw <= 17752.5\ngini = 0.0\nsamples = 116269\nvalue = [183376, 2]"] ;
99 -> 113 ;
114 [label="smart_9_raw <= 5425.5\ngini = 0.0\nsamples = 106395\nvalue = [167908, 1]"] ;
113 -> 114 ;
115 [label="smart_9_raw <= 5424.5\ngini = 0.0\nsamples = 23032\nvalue = [36473, 1]"] ;
114 -> 115 ;
116 [label="gini = 0.0\nsamples = 23024\nvalue = [36463, 0]"] ;
115 -> 116 ;
117 [label="gini = 0.165\nsamples = 8\nvalue = [10, 1]"] ;
115 -> 117 ;
118 [label="gini = 0.0\nsamples = 83363\nvalue = [131435, 0]"] ;
114 -> 118 ;
119 [label="smart_9_raw <= 17753.5\ngini = 0.0\nsamples = 9874\nvalue = [15468, 1]"] ;
113 -> 119 ;
120 [label="gini = 0.105\nsamples = 10\nvalue = [17, 1]"] ;
119 -> 120 ;
121 [label="gini = 0.0\nsamples = 9864\nvalue = [15451, 0]"] ;
119 -> 121 ;
122 [label="smart_9_raw <= 38415.5\ngini = 0.0\nsamples = 512656\nvalue = [812146, 2]"] ;
98 -> 122 ;
123 [label="smart_194_raw <= 21.5\ngini = 0.0\nsamples = 436445\nvalue = [691461, 1]"] ;
122 -> 123 ;
124 [label="smart_194_raw <= 20.5\ngini = 0.0\nsamples = 235214\nvalue = [372412, 1]"] ;
123 -> 124 ;
125 [label="gini = 0.0\nsamples = 99542\nvalue = [157881, 0]"] ;
124 -> 125 ;
126 [label="smart_9_raw <= 22106.5\ngini = 0.0\nsamples = 135672\nvalue = [214531, 1]"] ;
124 -> 126 ;
127 [label="smart_9_raw <= 22105.5\ngini = 0.0\nsamples = 32924\nvalue = [52183, 1]"] ;
126 -> 127 ;
128 [label="gini = 0.0\nsamples = 32913\nvalue = [52169, 0]"] ;
127 -> 128 ;
129 [label="gini = 0.124\nsamples = 11\nvalue = [14, 1]"] ;
127 -> 129 ;
130 [label="gini = 0.0\nsamples = 102748\nvalue = [162348, 0]"] ;
126 -> 130 ;
131 [label="gini = 0.0\nsamples = 201231\nvalue = [319049, 0]"] ;
123 -> 131 ;
132 [label="smart_194_raw <= 21.5\ngini = 0.0\nsamples = 76211\nvalue = [120685, 1]"] ;
122 -> 132 ;
133 [label="gini = 0.0\nsamples = 43684\nvalue = [69081, 0]"] ;
132 -> 133 ;
134 [label="smart_9_raw <= 38416.5\ngini = 0.0\nsamples = 32527\nvalue = [51604, 1]"] ;
132 -> 134 ;
135 [label="gini = 0.064\nsamples = 19\nvalue = [29, 1]"] ;
134 -> 135 ;
136 [label="gini = 0.0\nsamples = 32508\nvalue = [51575, 0]"] ;
134 -> 136 ;
137 [label="smart_9_raw <= 39617.5\ngini = 0.0\nsamples = 568176\nvalue = [898251, 23]"] ;
81 -> 137 ;
138 [label="smart_194_raw <= 20.5\ngini = 0.031\nsamples = 81\nvalue = [124, 2]"] ;
137 -> 138 ;
139 [label="smart_194_raw <= 19.5\ngini = 0.114\nsamples = 22\nvalue = [31, 2]"] ;
138 -> 139 ;
140 [label="gini = 0.0\nsamples = 9\nvalue = [17, 0]"] ;
139 -> 140 ;
141 [label="gini = 0.219\nsamples = 13\nvalue = [14, 2]"] ;
139 -> 141 ;
142 [label="gini = 0.0\nsamples = 59\nvalue = [93, 0]"] ;
138 -> 142 ;
143 [label="smart_9_raw <= 39916.5\ngini = 0.0\nsamples = 568095\nvalue = [898127, 21]"] ;
137 -> 143 ;
144 [label="smart_9_raw <= 39915.5\ngini = 0.0\nsamples = 23442\nvalue = [36899, 4]"] ;
143 -> 144 ;
145 [label="gini = 0.0\nsamples = 23342\nvalue = [36727, 0]"] ;
144 -> 145 ;
146 [label="smart_194_raw <= 21.5\ngini = 0.044\nsamples = 100\nvalue = [172, 4]"] ;
144 -> 146 ;
147 [label="gini = 0.0\nsamples = 56\nvalue = [93, 0]"] ;
146 -> 147 ;
148 [label="gini = 0.092\nsamples = 44\nvalue = [79, 4]"] ;
146 -> 148 ;
149 [label="smart_9_raw <= 45348.5\ngini = 0.0\nsamples = 544653\nvalue = [861228, 17]"] ;
143 -> 149 ;
150 [label="smart_194_raw <= 19.5\ngini = 0.0\nsamples = 407832\nvalue = [645068, 9]"] ;
149 -> 150 ;
151 [label="smart_9_raw <= 41009.5\ngini = 0.0\nsamples = 78972\nvalue = [124701, 4]"] ;
150 -> 151 ;
152 [label="smart_9_raw <= 41008.5\ngini = 0.0\nsamples = 12075\nvalue = [19072, 2]"] ;
151 -> 152 ;
153 [label="smart_9_raw <= 40830.5\ngini = 0.0\nsamples = 12057\nvalue = [19048, 1]"] ;
152 -> 153 ;
154 [label="gini = 0.0\nsamples = 9808\nvalue = [15535, 0]"] ;
153 -> 154 ;
155 [label="smart_9_raw <= 40831.5\ngini = 0.001\nsamples = 2249\nvalue = [3513, 1]"] ;
153 -> 155 ;
156 [label="gini = 0.095\nsamples = 14\nvalue = [19, 1]"] ;
155 -> 156 ;
157 [label="gini = 0.0\nsamples = 2235\nvalue = [3494, 0]"] ;
155 -> 157 ;
158 [label="gini = 0.077\nsamples = 18\nvalue = [24, 1]"] ;
152 -> 158 ;
159 [label="smart_9_raw <= 43752.5\ngini = 0.0\nsamples = 66897\nvalue = [105629, 2]"] ;
151 -> 159 ;
160 [label="smart_9_raw <= 43751.5\ngini = 0.0\nsamples = 41446\nvalue = [65553, 2]"] ;
159 -> 160 ;
161 [label="smart_9_raw <= 42122.5\ngini = 0.0\nsamples = 41421\nvalue = [65507, 1]"] ;
160 -> 161 ;
162 [label="smart_9_raw <= 42121.5\ngini = 0.0\nsamples = 15668\nvalue = [24653, 1]"] ;
161 -> 162 ;
163 [label="gini = 0.0\nsamples = 15650\nvalue = [24624, 0]"] ;
162 -> 163 ;
164 [label="gini = 0.064\nsamples = 18\nvalue = [29, 1]"] ;
162 -> 164 ;
165 [label="gini = 0.0\nsamples = 25753\nvalue = [40854, 0]"] ;
161 -> 165 ;
166 [label="gini = 0.042\nsamples = 25\nvalue = [46, 1]"] ;
160 -> 166 ;
167 [label="gini = 0.0\nsamples = 25451\nvalue = [40076, 0]"] ;
159 -> 167 ;
168 [label="smart_194_raw <= 20.5\ngini = 0.0\nsamples = 328860\nvalue = [520367, 5]"] ;
150 -> 168 ;
169 [label="gini = 0.0\nsamples = 99113\nvalue = [156953, 0]"] ;
168 -> 169 ;
170 [label="smart_9_raw <= 41649.5\ngini = 0.0\nsamples = 229747\nvalue = [363414, 5]"] ;
168 -> 170 ;
171 [label="smart_9_raw <= 41648.5\ngini = 0.0\nsamples = 78991\nvalue = [124988, 4]"] ;
170 -> 171 ;
172 [label="smart_9_raw <= 40864.5\ngini = 0.0\nsamples = 78965\nvalue = [124949, 2]"] ;
171 -> 172 ;
173 [label="smart_9_raw <= 40863.5\ngini = 0.0\nsamples = 43712\nvalue = [69038, 2]"] ;
172 -> 173 ;
174 [label="smart_9_raw <= 40643.5\ngini = 0.0\nsamples = 43670\nvalue = [68973, 1]"] ;
173 -> 174 ;
175 [label="gini = 0.0\nsamples = 33494\nvalue = [52873, 0]"] ;
174 -> 175 ;
176 [label="smart_194_raw <= 21.5\ngini = 0.0\nsamples = 10176\nvalue = [16100, 1]"] ;
174 -> 176 ;
177 [label="gini = 0.0\nsamples = 4611\nvalue = [7409, 0]"] ;
176 -> 177 ;
178 [label="smart_9_raw <= 40644.5\ngini = 0.0\nsamples = 5565\nvalue = [8691, 1]"] ;
176 -> 178 ;
179 [label="gini = 0.117\nsamples = 9\nvalue = [15, 1]"] ;
178 -> 179 ;
180 [label="gini = 0.0\nsamples = 5556\nvalue = [8676, 0]"] ;
178 -> 180 ;
181 [label="smart_194_raw <= 21.5\ngini = 0.03\nsamples = 42\nvalue = [65, 1]"] ;
173 -> 181 ;
182 [label="gini = 0.067\nsamples = 20\nvalue = [28, 1]"] ;
181 -> 182 ;
183 [label="gini = 0.0\nsamples = 22\nvalue = [37, 0]"] ;
181 -> 183 ;
184 [label="gini = 0.0\nsamples = 35253\nvalue = [55911, 0]"] ;
172 -> 184 ;
185 [label="smart_194_raw <= 21.5\ngini = 0.093\nsamples = 26\nvalue = [39, 2]"] ;
171 -> 185 ;
186 [label="gini = 0.0\nsamples = 17\nvalue = [28, 0]"] ;
185 -> 186 ;
187 [label="gini = 0.26\nsamples = 9\nvalue = [11, 2]"] ;
185 -> 187 ;
188 [label="smart_194_raw <= 21.5\ngini = 0.0\nsamples = 150756\nvalue = [238426, 1]"] ;
170 -> 188 ;
189 [label="smart_9_raw <= 43697.5\ngini = 0.0\nsamples = 71938\nvalue = [113877, 1]"] ;
188 -> 189 ;
190 [label="gini = 0.0\nsamples = 41593\nvalue = [65647, 0]"] ;
189 -> 190 ;
191 [label="smart_9_raw <= 43698.5\ngini = 0.0\nsamples = 30345\nvalue = [48230, 1]"] ;
189 -> 191 ;
192 [label="gini = 0.074\nsamples = 17\nvalue = [25, 1]"] ;
191 -> 192 ;
193 [label="gini = 0.0\nsamples = 30328\nvalue = [48205, 0]"] ;
191 -> 193 ;
194 [label="gini = 0.0\nsamples = 78818\nvalue = [124549, 0]"] ;
188 -> 194 ;
195 [label="smart_194_raw <= 21.5\ngini = 0.0\nsamples = 136821\nvalue = [216160, 8]"] ;
149 -> 195 ;
196 [label="smart_9_raw <= 45349.5\ngini = 0.0\nsamples = 111915\nvalue = [176901, 8]"] ;
195 -> 196 ;
197 [label="smart_194_raw <= 20.5\ngini = 0.04\nsamples = 29\nvalue = [48, 1]"] ;
196 -> 197 ;
198 [label="smart_194_raw <= 19.5\ngini = 0.062\nsamples = 20\nvalue = [30, 1]"] ;
197 -> 198 ;
199 [label="gini = 0.0\nsamples = 8\nvalue = [11, 0]"] ;
198 -> 199 ;
200 [label="gini = 0.095\nsamples = 12\nvalue = [19, 1]"] ;
198 -> 200 ;
201 [label="gini = 0.0\nsamples = 9\nvalue = [18, 0]"] ;
197 -> 201 ;
202 [label="smart_9_raw <= 45737.5\ngini = 0.0\nsamples = 111886\nvalue = [176853, 7]"] ;
196 -> 202 ;
203 [label="smart_194_raw <= 19.5\ngini = 0.001\nsamples = 14073\nvalue = [22036, 6]"] ;
202 -> 203 ;
204 [label="smart_9_raw <= 45553.5\ngini = 0.001\nsamples = 4482\nvalue = [6997, 4]"] ;
203 -> 204 ;
205 [label="smart_9_raw <= 45552.5\ngini = 0.002\nsamples = 2351\nvalue = [3661, 4]"] ;
204 -> 205 ;
206 [label="smart_9_raw <= 45452.5\ngini = 0.001\nsamples = 2337\nvalue = [3640, 2]"] ;
205 -> 206 ;
207 [label="gini = 0.0\nsamples = 1171\nvalue = [1834, 0]"] ;
206 -> 207 ;
208 [label="smart_9_raw <= 45453.5\ngini = 0.002\nsamples = 1166\nvalue = [1806, 2]"] ;
206 -> 208 ;
209 [label="gini = 0.128\nsamples = 20\nvalue = [27, 2]"] ;
208 -> 209 ;
210 [label="gini = 0.0\nsamples = 1146\nvalue = [1779, 0]"] ;
208 -> 210 ;
211 [label="gini = 0.159\nsamples = 14\nvalue = [21, 2]"] ;
205 -> 211 ;
212 [label="gini = 0.0\nsamples = 2131\nvalue = [3336, 0]"] ;
204 -> 212 ;
213 [label="smart_194_raw <= 20.5\ngini = 0.0\nsamples = 9591\nvalue = [15039, 2]"] ;
203 -> 213 ;
214 [label="gini = 0.0\nsamples = 4692\nvalue = [7268, 0]"] ;
213 -> 214 ;
215 [label="smart_9_raw <= 45736.5\ngini = 0.001\nsamples = 4899\nvalue = [7771, 2]"] ;
213 -> 215 ;
216 [label="gini = 0.0\nsamples = 4886\nvalue = [7751, 0]"] ;
215 -> 216 ;
217 [label="gini = 0.165\nsamples = 13\nvalue = [20, 2]"] ;
215 -> 217 ;
218 [label="smart_194_raw <= 20.5\ngini = 0.0\nsamples = 97813\nvalue = [154817, 1]"] ;
202 -> 218 ;
219 [label="gini = 0.0\nsamples = 70611\nvalue = [111666, 0]"] ;
218 -> 219 ;
220 [label="smart_9_raw <= 46959.5\ngini = 0.0\nsamples = 27202\nvalue = [43151, 1]"] ;
218 -> 220 ;
221 [label="smart_9_raw <= 46958.5\ngini = 0.0\nsamples = 10825\nvalue = [17130, 1]"] ;
220 -> 221 ;
222 [label="gini = 0.0\nsamples = 10820\nvalue = [17123, 0]"] ;
221 -> 222 ;
223 [label="gini = 0.219\nsamples = 5\nvalue = [7, 1]"] ;
221 -> 223 ;
224 [label="gini = 0.0\nsamples = 16377\nvalue = [26021, 0]"] ;
220 -> 224 ;
225 [label="gini = 0.0\nsamples = 24906\nvalue = [39259, 0]"] ;
195 -> 225 ;
226 [label="smart_9_raw <= 4708.5\ngini = 0.0\nsamples = 8156129\nvalue = [12898142, 113]"] ;
50 -> 226 ;
227 [label="smart_194_raw <= 34.5\ngini = 0.0\nsamples = 1335169\nvalue = [2111267, 40]"] ;
226 -> 227 ;
228 [label="smart_194_raw <= 27.5\ngini = 0.0\nsamples = 975670\nvalue = [1542284, 21]"] ;
227 -> 228 ;
229 [label="smart_9_raw <= 932.5\ngini = 0.0\nsamples = 344003\nvalue = [543746, 4]"] ;
228 -> 229 ;
230 [label="smart_9_raw <= 931.5\ngini = 0.0\nsamples = 58099\nvalue = [91726, 2]"] ;
229 -> 230 ;
231 [label="smart_9_raw <= 598.5\ngini = 0.0\nsamples = 57983\nvalue = [91549, 1]"] ;
230 -> 231 ;
232 [label="gini = 0.0\nsamples = 30744\nvalue = [48522, 0]"] ;
231 -> 232 ;
233 [label="smart_194_raw <= 26.5\ngini = 0.0\nsamples = 27239\nvalue = [43027, 1]"] ;
231 -> 233 ;
234 [label="gini = 0.0\nsamples = 20100\nvalue = [31772, 0]"] ;
233 -> 234 ;
235 [label="smart_9_raw <= 599.5\ngini = 0.0\nsamples = 7139\nvalue = [11255, 1]"] ;
233 -> 235 ;
236 [label="gini = 0.045\nsamples = 25\nvalue = [42, 1]"] ;
235 -> 236 ;
237 [label="gini = 0.0\nsamples = 7114\nvalue = [11213, 0]"] ;
235 -> 237 ;
238 [label="smart_194_raw <= 24.5\ngini = 0.011\nsamples = 116\nvalue = [177, 1]"] ;
230 -> 238 ;
239 [label="smart_194_raw <= 23.5\ngini = 0.043\nsamples = 31\nvalue = [44, 1]"] ;
238 -> 239 ;
240 [label="gini = 0.0\nsamples = 10\nvalue = [13, 0]"] ;
239 -> 240 ;
241 [label="gini = 0.061\nsamples = 21\nvalue = [31, 1]"] ;
239 -> 241 ;
242 [label="gini = 0.0\nsamples = 85\nvalue = [133, 0]"] ;
238 -> 242 ;
243 [label="smart_194_raw <= 25.5\ngini = 0.0\nsamples = 285904\nvalue = [452020, 2]"] ;
229 -> 243 ;
244 [label="smart_194_raw <= 23.5\ngini = 0.0\nsamples = 141276\nvalue = [223024, 2]"] ;
243 -> 244 ;
245 [label="gini = 0.0\nsamples = 37978\nvalue = [60037, 0]"] ;
244 -> 245 ;
246 [label="smart_9_raw <= 4449.5\ngini = 0.0\nsamples = 103298\nvalue = [162987, 2]"] ;
244 -> 246 ;
247 [label="smart_9_raw <= 3042.5\ngini = 0.0\nsamples = 96752\nvalue = [152690, 1]"] ;
246 -> 247 ;
248 [label="gini = 0.0\nsamples = 61027\nvalue = [96265, 0]"] ;
247 -> 248 ;
249 [label="smart_9_raw <= 3043.5\ngini = 0.0\nsamples = 35725\nvalue = [56425, 1]"] ;
247 -> 249 ;
250 [label="smart_194_raw <= 24.5\ngini = 0.043\nsamples = 30\nvalue = [45, 1]"] ;
249 -> 250 ;
251 [label="gini = 0.133\nsamples = 11\nvalue = [13, 1]"] ;
250 -> 251 ;
252 [label="gini = 0.0\nsamples = 19\nvalue = [32, 0]"] ;
250 -> 252 ;
253 [label="gini = 0.0\nsamples = 35695\nvalue = [56380, 0]"] ;
249 -> 253 ;
254 [label="smart_194_raw <= 24.5\ngini = 0.0\nsamples = 6546\nvalue = [10297, 1]"] ;
246 -> 254 ;
255 [label="gini = 0.0\nsamples = 3112\nvalue = [4897, 0]"] ;
254 -> 255 ;
256 [label="smart_9_raw <= 4450.5\ngini = 0.0\nsamples = 3434\nvalue = [5400, 1]"] ;
254 -> 256 ;
257 [label="gini = 0.133\nsamples = 11\nvalue = [13, 1]"] ;
256 -> 257 ;
258 [label="gini = 0.0\nsamples = 3423\nvalue = [5387, 0]"] ;
256 -> 258 ;
259 [label="gini = 0.0\nsamples = 144628\nvalue = [228996, 0]"] ;
243 -> 259 ;
260 [label="smart_9_raw <= 4572.5\ngini = 0.0\nsamples = 631667\nvalue = [998538, 17]"] ;
228 -> 260 ;
261 [label="smart_9_raw <= 533.5\ngini = 0.0\nsamples = 614459\nvalue = [971464, 15]"] ;
260 -> 261 ;
262 [label="smart_9_raw <= 532.5\ngini = 0.0\nsamples = 51788\nvalue = [82103, 3]"] ;
261 -> 262 ;
263 [label="smart_9_raw <= 360.5\ngini = 0.0\nsamples = 51649\nvalue = [81881, 2]"] ;
262 -> 263 ;
264 [label="gini = 0.0\nsamples = 26917\nvalue = [42749, 0]"] ;
263 -> 264 ;
265 [label="smart_9_raw <= 361.5\ngini = 0.0\nsamples = 24732\nvalue = [39132, 2]"] ;
263 -> 265 ;
266 [label="smart_194_raw <= 30.5\ngini = 0.007\nsamples = 195\nvalue = [304, 1]"] ;
265 -> 266 ;
267 [label="smart_194_raw <= 29.5\ngini = 0.017\nsamples = 71\nvalue = [113, 1]"] ;
266 -> 267 ;
268 [label="gini = 0.0\nsamples = 50\nvalue = [79, 0]"] ;
267 -> 268 ;
269 [label="gini = 0.056\nsamples = 21\nvalue = [34, 1]"] ;
267 -> 269 ;
270 [label="gini = 0.0\nsamples = 124\nvalue = [191, 0]"] ;
266 -> 270 ;
271 [label="smart_194_raw <= 28.5\ngini = 0.0\nsamples = 24537\nvalue = [38828, 1]"] ;
265 -> 271 ;
272 [label="smart_9_raw <= 428.5\ngini = 0.0\nsamples = 3165\nvalue = [4964, 1]"] ;
271 -> 272 ;
273 [label="smart_9_raw <= 427.5\ngini = 0.001\nsamples = 1103\nvalue = [1697, 1]"] ;
272 -> 273 ;
274 [label="gini = 0.0\nsamples = 1084\nvalue = [1666, 0]"] ;
273 -> 274 ;
275 [label="gini = 0.061\nsamples = 19\nvalue = [31, 1]"] ;
273 -> 275 ;
276 [label="gini = 0.0\nsamples = 2062\nvalue = [3267, 0]"] ;
272 -> 276 ;
277 [label="gini = 0.0\nsamples = 21372\nvalue = [33864, 0]"] ;
271 -> 277 ;
278 [label="smart_194_raw <= 31.5\ngini = 0.009\nsamples = 139\nvalue = [222, 1]"] ;
262 -> 278 ;
279 [label="smart_194_raw <= 30.5\ngini = 0.019\nsamples = 66\nvalue = [103, 1]"] ;
278 -> 279 ;
280 [label="gini = 0.0\nsamples = 52\nvalue = [81, 0]"] ;
279 -> 280 ;
281 [label="gini = 0.083\nsamples = 14\nvalue = [22, 1]"] ;
279 -> 281 ;
282 [label="gini = 0.0\nsamples = 73\nvalue = [119, 0]"] ;
278 -> 282 ;
283 [label="smart_194_raw <= 30.5\ngini = 0.0\nsamples = 562671\nvalue = [889361, 12]"] ;
261 -> 283 ;
284 [label="smart_194_raw <= 28.5\ngini = 0.0\nsamples = 257596\nvalue = [407354, 8]"] ;
283 -> 284 ;
285 [label="smart_9_raw <= 4360.5\ngini = 0.0\nsamples = 87412\nvalue = [138219, 1]"] ;
284 -> 285 ;
286 [label="gini = 0.0\nsamples = 83078\nvalue = [131396, 0]"] ;
285 -> 286 ;
287 [label="smart_9_raw <= 4361.5\ngini = 0.0\nsamples = 4334\nvalue = [6823, 1]"] ;
285 -> 287 ;
288 [label="gini = 0.062\nsamples = 20\nvalue = [30, 1]"] ;
287 -> 288 ;
289 [label="gini = 0.0\nsamples = 4314\nvalue = [6793, 0]"] ;
287 -> 289 ;
290 [label="smart_194_raw <= 29.5\ngini = 0.0\nsamples = 170184\nvalue = [269135, 7]"] ;
284 -> 290 ;
291 [label="smart_9_raw <= 2759.5\ngini = 0.0\nsamples = 90072\nvalue = [142329, 4]"] ;
290 -> 291 ;
292 [label="smart_9_raw <= 1572.5\ngini = 0.0\nsamples = 51400\nvalue = [81323, 1]"] ;
291 -> 292 ;
293 [label="smart_9_raw <= 1571.5\ngini = 0.0\nsamples = 24286\nvalue = [38460, 1]"] ;
292 -> 293 ;
294 [label="gini = 0.0\nsamples = 24276\nvalue = [38444, 0]"] ;
293 -> 294 ;
295 [label="gini = 0.111\nsamples = 10\nvalue = [16, 1]"] ;
293 -> 295 ;
296 [label="gini = 0.0\nsamples = 27114\nvalue = [42863, 0]"] ;
292 -> 296 ;
297 [label="smart_9_raw <= 2760.5\ngini = 0.0\nsamples = 38672\nvalue = [61006, 3]"] ;
291 -> 297 ;
298 [label="gini = 0.08\nsamples = 25\nvalue = [46, 2]"] ;
297 -> 298 ;
299 [label="smart_9_raw <= 3496.5\ngini = 0.0\nsamples = 38647\nvalue = [60960, 1]"] ;
297 -> 299 ;
300 [label="smart_9_raw <= 3495.5\ngini = 0.0\nsamples = 15892\nvalue = [25082, 1]"] ;
299 -> 300 ;
301 [label="gini = 0.0\nsamples = 15876\nvalue = [25052, 0]"] ;
300 -> 301 ;
302 [label="gini = 0.062\nsamples = 16\nvalue = [30, 1]"] ;
300 -> 302 ;
303 [label="gini = 0.0\nsamples = 22755\nvalue = [35878, 0]"] ;
299 -> 303 ;
304 [label="smart_9_raw <= 2282.5\ngini = 0.0\nsamples = 80112\nvalue = [126806, 3]"] ;
290 -> 304 ;
305 [label="gini = 0.0\nsamples = 36865\nvalue = [58236, 0]"] ;
304 -> 305 ;
306 [label="smart_9_raw <= 2283.5\ngini = 0.0\nsamples = 43247\nvalue = [68570, 3]"] ;
304 -> 306 ;
307 [label="gini = 0.071\nsamples = 20\nvalue = [26, 1]"] ;
306 -> 307 ;
308 [label="smart_9_raw <= 2420.5\ngini = 0.0\nsamples = 43227\nvalue = [68544, 2]"] ;
306 -> 308 ;
309 [label="smart_9_raw <= 2419.5\ngini = 0.0\nsamples = 2795\nvalue = [4490, 1]"] ;
308 -> 309 ;
310 [label="gini = 0.0\nsamples = 2765\nvalue = [4448, 0]"] ;
309 -> 310 ;
311 [label="gini = 0.045\nsamples = 30\nvalue = [42, 1]"] ;
309 -> 311 ;
312 [label="smart_9_raw <= 4036.5\ngini = 0.0\nsamples = 40432\nvalue = [64054, 1]"] ;
308 -> 312 ;
313 [label="gini = 0.0\nsamples = 30298\nvalue = [47983, 0]"] ;
312 -> 313 ;
314 [label="smart_9_raw <= 4037.5\ngini = 0.0\nsamples = 10134\nvalue = [16071, 1]"] ;
312 -> 314 ;
315 [label="gini = 0.111\nsamples = 13\nvalue = [16, 1]"] ;
314 -> 315 ;
316 [label="gini = 0.0\nsamples = 10121\nvalue = [16055, 0]"] ;
314 -> 316 ;
317 [label="smart_194_raw <= 33.5\ngini = 0.0\nsamples = 305075\nvalue = [482007, 4]"] ;
283 -> 317 ;
318 [label="smart_9_raw <= 1797.5\ngini = 0.0\nsamples = 232638\nvalue = [367935, 4]"] ;
317 -> 318 ;
319 [label="smart_9_raw <= 1796.5\ngini = 0.0\nsamples = 78635\nvalue = [124181, 3]"] ;
318 -> 319 ;
320 [label="smart_194_raw <= 32.5\ngini = 0.0\nsamples = 78559\nvalue = [124058, 2]"] ;
319 -> 320 ;
321 [label="gini = 0.0\nsamples = 52714\nvalue = [83176, 0]"] ;
320 -> 321 ;
322 [label="smart_9_raw <= 1779.5\ngini = 0.0\nsamples = 25845\nvalue = [40882, 2]"] ;
320 -> 322 ;
323 [label="gini = 0.0\nsamples = 25573\nvalue = [40452, 0]"] ;
322 -> 323 ;
324 [label="smart_9_raw <= 1780.5\ngini = 0.009\nsamples = 272\nvalue = [430, 2]"] ;
322 -> 324 ;
325 [label="gini = 0.097\nsamples = 23\nvalue = [37, 2]"] ;
324 -> 325 ;
326 [label="gini = 0.0\nsamples = 249\nvalue = [393, 0]"] ;
324 -> 326 ;
327 [label="smart_194_raw <= 31.5\ngini = 0.016\nsamples = 76\nvalue = [123, 1]"] ;
319 -> 327 ;
328 [label="gini = 0.061\nsamples = 20\nvalue = [31, 1]"] ;
327 -> 328 ;
329 [label="gini = 0.0\nsamples = 56\nvalue = [92, 0]"] ;
327 -> 329 ;
330 [label="smart_194_raw <= 31.5\ngini = 0.0\nsamples = 154003\nvalue = [243754, 1]"] ;
318 -> 330 ;
331 [label="gini = 0.0\nsamples = 52170\nvalue = [82358, 0]"] ;
330 -> 331 ;
332 [label="smart_9_raw <= 2887.5\ngini = 0.0\nsamples = 101833\nvalue = [161396, 1]"] ;
330 -> 332 ;
333 [label="smart_9_raw <= 2886.5\ngini = 0.0\nsamples = 43765\nvalue = [69392, 1]"] ;
332 -> 333 ;
334 [label="gini = 0.0\nsamples = 43721\nvalue = [69325, 0]"] ;
333 -> 334 ;
335 [label="smart_194_raw <= 32.5\ngini = 0.029\nsamples = 44\nvalue = [67, 1]"] ;
333 -> 335 ;
336 [label="gini = 0.054\nsamples = 23\nvalue = [35, 1]"] ;
335 -> 336 ;
337 [label="gini = 0.0\nsamples = 21\nvalue = [32, 0]"] ;
335 -> 337 ;
338 [label="gini = 0.0\nsamples = 58068\nvalue = [92004, 0]"] ;
332 -> 338 ;
339 [label="gini = 0.0\nsamples = 72437\nvalue = [114072, 0]"] ;
317 -> 339 ;
340 [label="smart_194_raw <= 33.5\ngini = 0.0\nsamples = 17208\nvalue = [27074, 2]"] ;
260 -> 340 ;
341 [label="gini = 0.0\nsamples = 15048\nvalue = [23684, 0]"] ;
340 -> 341 ;
342 [label="smart_9_raw <= 4573.5\ngini = 0.001\nsamples = 2160\nvalue = [3390, 2]"] ;
340 -> 342 ;
343 [label="gini = 0.298\nsamples = 8\nvalue = [9, 2]"] ;
342 -> 343 ;
344 [label="gini = 0.0\nsamples = 2152\nvalue = [3381, 0]"] ;
342 -> 344 ;
345 [label="smart_9_raw <= 4707.5\ngini = 0.0\nsamples = 359499\nvalue = [568983, 19]"] ;
227 -> 345 ;
346 [label="smart_194_raw <= 36.5\ngini = 0.0\nsamples = 359408\nvalue = [568849, 13]"] ;
345 -> 346 ;
347 [label="smart_9_raw <= 4346.5\ngini = 0.0\nsamples = 140613\nvalue = [222502, 11]"] ;
346 -> 347 ;
348 [label="smart_194_raw <= 35.5\ngini = 0.0\nsamples = 131054\nvalue = [207395, 7]"] ;
347 -> 348 ;
349 [label="smart_9_raw <= 3769.5\ngini = 0.0\nsamples = 66161\nvalue = [104730, 5]"] ;
348 -> 349 ;
350 [label="smart_9_raw <= 1456.5\ngini = 0.0\nsamples = 58171\nvalue = [92111, 3]"] ;
349 -> 350 ;
351 [label="smart_9_raw <= 1455.5\ngini = 0.0\nsamples = 19991\nvalue = [31768, 3]"] ;
350 -> 351 ;
352 [label="smart_9_raw <= 802.5\ngini = 0.0\nsamples = 19978\nvalue = [31749, 2]"] ;
351 -> 352 ;
353 [label="smart_9_raw <= 801.5\ngini = 0.0\nsamples = 9653\nvalue = [15412, 2]"] ;
352 -> 353 ;
354 [label="gini = 0.0\nsamples = 9643\nvalue = [15393, 0]"] ;
353 -> 354 ;
355 [label="gini = 0.172\nsamples = 10\nvalue = [19, 2]"] ;
353 -> 355 ;
356 [label="gini = 0.0\nsamples = 10325\nvalue = [16337, 0]"] ;
352 -> 356 ;
357 [label="gini = 0.095\nsamples = 13\nvalue = [19, 1]"] ;
351 -> 357 ;
358 [label="gini = 0.0\nsamples = 38180\nvalue = [60343, 0]"] ;
350 -> 358 ;
359 [label="smart_9_raw <= 3770.5\ngini = 0.0\nsamples = 7990\nvalue = [12619, 2]"] ;
349 -> 359 ;
360 [label="gini = 0.128\nsamples = 19\nvalue = [27, 2]"] ;
359 -> 360 ;
361 [label="gini = 0.0\nsamples = 7971\nvalue = [12592, 0]"] ;
359 -> 361 ;
362 [label="smart_9_raw <= 3758.5\ngini = 0.0\nsamples = 64893\nvalue = [102665, 2]"] ;
348 -> 362 ;
363 [label="smart_9_raw <= 1770.5\ngini = 0.0\nsamples = 56442\nvalue = [89416, 1]"] ;
362 -> 363 ;
364 [label="smart_9_raw <= 1769.5\ngini = 0.0\nsamples = 23450\nvalue = [37254, 1]"] ;
363 -> 364 ;
365 [label="gini = 0.0\nsamples = 23428\nvalue = [37224, 0]"] ;
364 -> 365 ;
366 [label="gini = 0.062\nsamples = 22\nvalue = [30, 1]"] ;
364 -> 366 ;
367 [label="gini = 0.0\nsamples = 32992\nvalue = [52162, 0]"] ;
363 -> 367 ;
368 [label="smart_9_raw <= 3759.5\ngini = 0.0\nsamples = 8451\nvalue = [13249, 1]"] ;
362 -> 368 ;
369 [label="gini = 0.142\nsamples = 10\nvalue = [12, 1]"] ;
368 -> 369 ;
370 [label="gini = 0.0\nsamples = 8441\nvalue = [13237, 0]"] ;
368 -> 370 ;
371 [label="smart_194_raw <= 35.5\ngini = 0.001\nsamples = 9559\nvalue = [15107, 4]"] ;
347 -> 371 ;
372 [label="gini = 0.0\nsamples = 4804\nvalue = [7609, 0]"] ;
371 -> 372 ;
373 [label="smart_9_raw <= 4347.5\ngini = 0.001\nsamples = 4755\nvalue = [7498, 4]"] ;
371 -> 373 ;
374 [label="gini = 0.219\nsamples = 18\nvalue = [28, 4]"] ;
373 -> 374 ;
375 [label="gini = 0.0\nsamples = 4737\nvalue = [7470, 0]"] ;
373 -> 375 ;
376 [label="smart_194_raw <= 40.5\ngini = 0.0\nsamples = 218795\nvalue = [346347, 2]"] ;
346 -> 376 ;
377 [label="smart_9_raw <= 1470.5\ngini = 0.0\nsamples = 189737\nvalue = [300448, 1]"] ;
376 -> 377 ;
378 [label="smart_194_raw <= 37.5\ngini = 0.0\nsamples = 48386\nvalue = [76555, 1]"] ;
377 -> 378 ;
379 [label="smart_9_raw <= 1469.5\ngini = 0.0\nsamples = 15446\nvalue = [24493, 1]"] ;
378 -> 379 ;
380 [label="gini = 0.0\nsamples = 15427\nvalue = [24464, 0]"] ;
379 -> 380 ;
381 [label="gini = 0.064\nsamples = 19\nvalue = [29, 1]"] ;
379 -> 381 ;
382 [label="gini = 0.0\nsamples = 32940\nvalue = [52062, 0]"] ;
378 -> 382 ;
383 [label="gini = 0.0\nsamples = 141351\nvalue = [223893, 0]"] ;
377 -> 383 ;
384 [label="smart_9_raw <= 4489.5\ngini = 0.0\nsamples = 29058\nvalue = [45899, 1]"] ;
376 -> 384 ;
385 [label="gini = 0.0\nsamples = 27677\nvalue = [43673, 0]"] ;
384 -> 385 ;
386 [label="smart_9_raw <= 4490.5\ngini = 0.001\nsamples = 1381\nvalue = [2226, 1]"] ;
384 -> 386 ;
387 [label="gini = 0.095\nsamples = 11\nvalue = [19, 1]"] ;
386 -> 387 ;
388 [label="gini = 0.0\nsamples = 1370\nvalue = [2207, 0]"] ;
386 -> 388 ;
389 [label="smart_194_raw <= 35.5\ngini = 0.082\nsamples = 91\nvalue = [134, 6]"] ;
345 -> 389 ;
390 [label="gini = 0.266\nsamples = 23\nvalue = [32, 6]"] ;
389 -> 390 ;
391 [label="gini = 0.0\nsamples = 68\nvalue = [102, 0]"] ;
389 -> 391 ;
392 [label="smart_194_raw <= 37.5\ngini = 0.0\nsamples = 6820960\nvalue = [10786875, 73]"] ;
226 -> 392 ;
393 [label="smart_9_raw <= 24015.5\ngini = 0.0\nsamples = 6312791\nvalue = [9983591, 72]"] ;
392 -> 393 ;
394 [label="smart_9_raw <= 20584.5\ngini = 0.0\nsamples = 3390790\nvalue = [5362072, 23]"] ;
393 -> 394 ;
395 [label="smart_194_raw <= 35.5\ngini = 0.0\nsamples = 2522581\nvalue = [3989283, 21]"] ;
394 -> 395 ;
396 [label="smart_9_raw <= 20583.5\ngini = 0.0\nsamples = 2371859\nvalue = [3750372, 16]"] ;
395 -> 396 ;
397 [label="smart_194_raw <= 32.5\ngini = 0.0\nsamples = 2371625\nvalue = [3749990, 13]"] ;
396 -> 397 ;
398 [label="smart_194_raw <= 29.5\ngini = 0.0\nsamples = 2005683\nvalue = [3171321, 13]"] ;
397 -> 398 ;
399 [label="smart_9_raw <= 6570.5\ngini = 0.0\nsamples = 1470197\nvalue = [2324409, 6]"] ;
398 -> 399 ;
400 [label="smart_194_raw <= 27.5\ngini = 0.0\nsamples = 165307\nvalue = [261472, 2]"] ;
399 -> 400 ;
401 [label="gini = 0.0\nsamples = 106460\nvalue = [168139, 0]"] ;
400 -> 401 ;
402 [label="smart_194_raw <= 28.5\ngini = 0.0\nsamples = 58847\nvalue = [93333, 2]"] ;
400 -> 402 ;
403 [label="smart_9_raw <= 6569.5\ngini = 0.0\nsamples = 29468\nvalue = [46864, 2]"] ;
402 -> 403 ;
404 [label="smart_9_raw <= 6484.5\ngini = 0.0\nsamples = 29448\nvalue = [46835, 1]"] ;
403 -> 404 ;
405 [label="gini = 0.0\nsamples = 28530\nvalue = [45376, 0]"] ;
404 -> 405 ;
406 [label="smart_9_raw <= 6485.5\ngini = 0.001\nsamples = 918\nvalue = [1459, 1]"] ;
404 -> 406 ;
407 [label="gini = 0.091\nsamples = 15\nvalue = [20, 1]"] ;
406 -> 407 ;
408 [label="gini = 0.0\nsamples = 903\nvalue = [1439, 0]"] ;
406 -> 408 ;
409 [label="gini = 0.064\nsamples = 20\nvalue = [29, 1]"] ;
403 -> 409 ;
410 [label="gini = 0.0\nsamples = 29379\nvalue = [46469, 0]"] ;
402 -> 410 ;
411 [label="smart_194_raw <= 24.5\ngini = 0.0\nsamples = 1304890\nvalue = [2062937, 4]"] ;
399 -> 411 ;
412 [label="gini = 0.0\nsamples = 290779\nvalue = [458748, 0]"] ;
411 -> 412 ;
413 [label="smart_9_raw <= 12502.5\ngini = 0.0\nsamples = 1014111\nvalue = [1604189, 4]"] ;
411 -> 413 ;
414 [label="gini = 0.0\nsamples = 331563\nvalue = [524557, 0]"] ;
413 -> 414 ;
415 [label="smart_9_raw <= 12503.5\ngini = 0.0\nsamples = 682548\nvalue = [1079632, 4]"] ;
413 -> 415 ;
416 [label="smart_194_raw <= 28.5\ngini = 0.018\nsamples = 68\nvalue = [111, 1]"] ;
415 -> 416 ;
417 [label="gini = 0.0\nsamples = 51\nvalue = [82, 0]"] ;
416 -> 417 ;
418 [label="gini = 0.064\nsamples = 17\nvalue = [29, 1]"] ;
416 -> 418 ;
419 [label="smart_194_raw <= 25.5\ngini = 0.0\nsamples = 682480\nvalue = [1079521, 3]"] ;
415 -> 419 ;
420 [label="smart_9_raw <= 17854.5\ngini = 0.0\nsamples = 131384\nvalue = [207700, 2]"] ;
419 -> 420 ;
421 [label="gini = 0.0\nsamples = 78049\nvalue = [123286, 0]"] ;
420 -> 421 ;
422 [label="smart_9_raw <= 17855.5\ngini = 0.0\nsamples = 53335\nvalue = [84414, 2]"] ;
420 -> 422 ;
423 [label="gini = 0.085\nsamples = 22\nvalue = [43, 2]"] ;
422 -> 423 ;
424 [label="gini = 0.0\nsamples = 53313\nvalue = [84371, 0]"] ;
422 -> 424 ;
425 [label="smart_9_raw <= 13485.5\ngini = 0.0\nsamples = 551096\nvalue = [871821, 1]"] ;
419 -> 425 ;
426 [label="smart_194_raw <= 26.5\ngini = 0.0\nsamples = 44728\nvalue = [70873, 1]"] ;
425 -> 426 ;
427 [label="smart_9_raw <= 13484.5\ngini = 0.0\nsamples = 12451\nvalue = [19586, 1]"] ;
426 -> 427 ;
428 [label="gini = 0.0\nsamples = 12430\nvalue = [19556, 0]"] ;
427 -> 428 ;
429 [label="gini = 0.062\nsamples = 21\nvalue = [30, 1]"] ;
427 -> 429 ;
430 [label="gini = 0.0\nsamples = 32277\nvalue = [51287, 0]"] ;
426 -> 430 ;
431 [label="gini = 0.0\nsamples = 506368\nvalue = [800948, 0]"] ;
425 -> 431 ;
432 [label="smart_194_raw <= 30.5\ngini = 0.0\nsamples = 535486\nvalue = [846912, 7]"] ;
398 -> 432 ;
433 [label="smart_9_raw <= 6636.5\ngini = 0.0\nsamples = 191851\nvalue = [303719, 5]"] ;
432 -> 433 ;
434 [label="smart_9_raw <= 6635.5\ngini = 0.0\nsamples = 27203\nvalue = [42891, 2]"] ;
433 -> 434 ;
435 [label="smart_9_raw <= 6485.5\ngini = 0.0\nsamples = 27200\nvalue = [42889, 1]"] ;
434 -> 435 ;
436 [label="gini = 0.0\nsamples = 25662\nvalue = [40478, 0]"] ;
435 -> 436 ;
437 [label="smart_9_raw <= 6486.5\ngini = 0.001\nsamples = 1538\nvalue = [2411, 1]"] ;
435 -> 437 ;
438 [label="gini = 0.067\nsamples = 19\nvalue = [28, 1]"] ;
437 -> 438 ;
439 [label="gini = 0.0\nsamples = 1519\nvalue = [2383, 0]"] ;
437 -> 439 ;
440 [label="gini = 0.444\nsamples = 3\nvalue = [2, 1]"] ;
434 -> 440 ;
441 [label="smart_9_raw <= 15435.5\ngini = 0.0\nsamples = 164648\nvalue = [260828, 3]"] ;
433 -> 441 ;
442 [label="gini = 0.0\nsamples = 91600\nvalue = [145087, 0]"] ;
441 -> 442 ;
443 [label="smart_9_raw <= 15436.5\ngini = 0.0\nsamples = 73048\nvalue = [115741, 3]"] ;
441 -> 443 ;
444 [label="gini = 0.231\nsamples = 9\nvalue = [13, 2]"] ;
443 -> 444 ;
445 [label="smart_9_raw <= 17975.5\ngini = 0.0\nsamples = 73039\nvalue = [115728, 1]"] ;
443 -> 445 ;
446 [label="smart_9_raw <= 17974.5\ngini = 0.0\nsamples = 29845\nvalue = [47346, 1]"] ;
445 -> 446 ;
447 [label="gini = 0.0\nsamples = 29820\nvalue = [47309, 0]"] ;
446 -> 447 ;
448 [label="gini = 0.051\nsamples = 25\nvalue = [37, 1]"] ;
446 -> 448 ;
449 [label="gini = 0.0\nsamples = 43194\nvalue = [68382, 0]"] ;
445 -> 449 ;
450 [label="smart_194_raw <= 31.5\ngini = 0.0\nsamples = 343635\nvalue = [543193, 2]"] ;
432 -> 450 ;
451 [label="smart_9_raw <= 9434.5\ngini = 0.0\nsamples = 180503\nvalue = [284855, 1]"] ;
450 -> 451 ;
452 [label="smart_9_raw <= 9433.5\ngini = 0.0\nsamples = 51675\nvalue = [81661, 1]"] ;
451 -> 452 ;
453 [label="gini = 0.0\nsamples = 51651\nvalue = [81628, 0]"] ;
452 -> 453 ;
454 [label="gini = 0.057\nsamples = 24\nvalue = [33, 1]"] ;
452 -> 454 ;
455 [label="gini = 0.0\nsamples = 128828\nvalue = [203194, 0]"] ;
451 -> 455 ;
456 [label="smart_9_raw <= 18042.5\ngini = 0.0\nsamples = 163132\nvalue = [258338, 1]"] ;
450 -> 456 ;
457 [label="gini = 0.0\nsamples = 131253\nvalue = [207925, 0]"] ;
456 -> 457 ;
458 [label="smart_9_raw <= 18043.5\ngini = 0.0\nsamples = 31879\nvalue = [50413, 1]"] ;
456 -> 458 ;
459 [label="gini = 0.074\nsamples = 18\nvalue = [25, 1]"] ;
458 -> 459 ;
460 [label="gini = 0.0\nsamples = 31861\nvalue = [50388, 0]"] ;
458 -> 460 ;
461 [label="gini = 0.0\nsamples = 365942\nvalue = [578669, 0]"] ;
397 -> 461 ;
462 [label="smart_194_raw <= 24.5\ngini = 0.015\nsamples = 234\nvalue = [382, 3]"] ;
396 -> 462 ;
463 [label="smart_194_raw <= 23.5\ngini = 0.084\nsamples = 40\nvalue = [65, 3]"] ;
462 -> 463 ;
464 [label="gini = 0.0\nsamples = 19\nvalue = [29, 0]"] ;
463 -> 464 ;
465 [label="gini = 0.142\nsamples = 21\nvalue = [36, 3]"] ;
463 -> 465 ;
466 [label="gini = 0.0\nsamples = 194\nvalue = [317, 0]"] ;
462 -> 466 ;
467 [label="smart_9_raw <= 19664.5\ngini = 0.0\nsamples = 150722\nvalue = [238911, 5]"] ;
395 -> 467 ;
468 [label="smart_9_raw <= 8829.5\ngini = 0.0\nsamples = 140792\nvalue = [223272, 3]"] ;
467 -> 468 ;
469 [label="smart_9_raw <= 8828.5\ngini = 0.0\nsamples = 58678\nvalue = [93159, 3]"] ;
468 -> 469 ;
470 [label="smart_9_raw <= 8248.5\ngini = 0.0\nsamples = 58668\nvalue = [93143, 1]"] ;
469 -> 470 ;
471 [label="gini = 0.0\nsamples = 52047\nvalue = [82674, 0]"] ;
470 -> 471 ;
472 [label="smart_9_raw <= 8249.5\ngini = 0.0\nsamples = 6621\nvalue = [10469, 1]"] ;
470 -> 472 ;
473 [label="smart_194_raw <= 36.5\ngini = 0.117\nsamples = 10\nvalue = [15, 1]"] ;
472 -> 473 ;
474 [label="gini = 0.198\nsamples = 6\nvalue = [8, 1]"] ;
473 -> 474 ;
475 [label="gini = 0.0\nsamples = 4\nvalue = [7, 0]"] ;
473 -> 475 ;
476 [label="gini = 0.0\nsamples = 6611\nvalue = [10454, 0]"] ;
472 -> 476 ;
477 [label="smart_194_raw <= 36.5\ngini = 0.198\nsamples = 10\nvalue = [16, 2]"] ;
469 -> 477 ;
478 [label="gini = 0.0\nsamples = 6\nvalue = [10, 0]"] ;
477 -> 478 ;
479 [label="gini = 0.375\nsamples = 4\nvalue = [6, 2]"] ;
477 -> 479 ;
480 [label="gini = 0.0\nsamples = 82114\nvalue = [130113, 0]"] ;
468 -> 480 ;
481 [label="smart_9_raw <= 19665.5\ngini = 0.0\nsamples = 9930\nvalue = [15639, 2]"] ;
467 -> 481 ;
482 [label="smart_194_raw <= 36.5\ngini = 0.219\nsamples = 12\nvalue = [14, 2]"] ;
481 -> 482 ;
483 [label="gini = 0.32\nsamples = 7\nvalue = [8, 2]"] ;
482 -> 483 ;
484 [label="gini = 0.0\nsamples = 5\nvalue = [6, 0]"] ;
482 -> 484 ;
485 [label="gini = 0.0\nsamples = 9918\nvalue = [15625, 0]"] ;
481 -> 485 ;
486 [label="smart_194_raw <= 32.5\ngini = 0.0\nsamples = 868209\nvalue = [1372789, 2]"] ;
394 -> 486 ;
487 [label="smart_9_raw <= 23581.5\ngini = 0.0\nsamples = 641152\nvalue = [1014073, 2]"] ;
486 -> 487 ;
488 [label="smart_9_raw <= 21523.5\ngini = 0.0\nsamples = 573657\nvalue = [907350, 1]"] ;
487 -> 488 ;
489 [label="smart_194_raw <= 26.5\ngini = 0.0\nsamples = 194985\nvalue = [308596, 1]"] ;
488 -> 489 ;
490 [label="smart_9_raw <= 21522.5\ngini = 0.0\nsamples = 76101\nvalue = [120433, 1]"] ;
489 -> 490 ;
491 [label="gini = 0.0\nsamples = 76033\nvalue = [120331, 0]"] ;
490 -> 491 ;
492 [label="smart_194_raw <= 25.5\ngini = 0.019\nsamples = 68\nvalue = [102, 1]"] ;
490 -> 492 ;
493 [label="gini = 0.0\nsamples = 38\nvalue = [59, 0]"] ;
492 -> 493 ;
494 [label="gini = 0.044\nsamples = 30\nvalue = [43, 1]"] ;
492 -> 494 ;
495 [label="gini = 0.0\nsamples = 118884\nvalue = [188163, 0]"] ;
489 -> 495 ;
496 [label="gini = 0.0\nsamples = 378672\nvalue = [598754, 0]"] ;
488 -> 496 ;
497 [label="smart_9_raw <= 23582.5\ngini = 0.0\nsamples = 67495\nvalue = [106723, 1]"] ;
487 -> 497 ;
498 [label="smart_194_raw <= 31.5\ngini = 0.011\nsamples = 113\nvalue = [185, 1]"] ;
497 -> 498 ;
499 [label="gini = 0.0\nsamples = 93\nvalue = [150, 0]"] ;
498 -> 499 ;
500 [label="gini = 0.054\nsamples = 20\nvalue = [35, 1]"] ;
498 -> 500 ;
501 [label="gini = 0.0\nsamples = 67382\nvalue = [106538, 0]"] ;
497 -> 501 ;
502 [label="gini = 0.0\nsamples = 227057\nvalue = [358716, 0]"] ;
486 -> 502 ;
503 [label="smart_9_raw <= 24016.5\ngini = 0.0\nsamples = 2922001\nvalue = [4621519, 49]"] ;
393 -> 503 ;
504 [label="smart_194_raw <= 30.5\ngini = 0.005\nsamples = 240\nvalue = [365, 1]"] ;
503 -> 504 ;
505 [label="smart_194_raw <= 29.5\ngini = 0.01\nsamples = 127\nvalue = [195, 1]"] ;
504 -> 505 ;
506 [label="gini = 0.0\nsamples = 106\nvalue = [162, 0]"] ;
505 -> 506 ;
507 [label="gini = 0.057\nsamples = 21\nvalue = [33, 1]"] ;
505 -> 507 ;
508 [label="gini = 0.0\nsamples = 113\nvalue = [170, 0]"] ;
504 -> 508 ;
509 [label="smart_194_raw <= 30.5\ngini = 0.0\nsamples = 2921761\nvalue = [4621154, 48]"] ;
503 -> 509 ;
510 [label="smart_194_raw <= 23.5\ngini = 0.0\nsamples = 1826519\nvalue = [2888459, 22]"] ;
509 -> 510 ;
511 [label="smart_9_raw <= 43743.5\ngini = 0.0\nsamples = 314464\nvalue = [497059, 6]"] ;
510 -> 511 ;
512 [label="smart_9_raw <= 39936.5\ngini = 0.0\nsamples = 264030\nvalue = [417413, 2]"] ;
511 -> 512 ;
513 [label="smart_9_raw <= 39935.5\ngini = 0.0\nsamples = 176156\nvalue = [278304, 2]"] ;
512 -> 513 ;
514 [label="smart_9_raw <= 35893.5\ngini = 0.0\nsamples = 176109\nvalue = [278221, 1]"] ;
513 -> 514 ;
515 [label="smart_9_raw <= 35892.5\ngini = 0.0\nsamples = 79279\nvalue = [125122, 1]"] ;
514 -> 515 ;
516 [label="gini = 0.0\nsamples = 79269\nvalue = [125104, 0]"] ;
515 -> 516 ;
517 [label="gini = 0.1\nsamples = 10\nvalue = [18, 1]"] ;
515 -> 517 ;
518 [label="gini = 0.0\nsamples = 96830\nvalue = [153099, 0]"] ;
514 -> 518 ;
519 [label="gini = 0.024\nsamples = 47\nvalue = [83, 1]"] ;
513 -> 519 ;
520 [label="gini = 0.0\nsamples = 87874\nvalue = [139109, 0]"] ;
512 -> 520 ;
521 [label="smart_9_raw <= 43744.5\ngini = 0.0\nsamples = 50434\nvalue = [79646, 4]"] ;
511 -> 521 ;
522 [label="gini = 0.142\nsamples = 12\nvalue = [12, 1]"] ;
521 -> 522 ;
523 [label="smart_9_raw <= 44282.5\ngini = 0.0\nsamples = 50422\nvalue = [79634, 3]"] ;
521 -> 523 ;
524 [label="smart_9_raw <= 44281.5\ngini = 0.0\nsamples = 10343\nvalue = [16460, 2]"] ;
523 -> 524 ;
525 [label="gini = 0.0\nsamples = 10317\nvalue = [16422, 0]"] ;
524 -> 525 ;
526 [label="gini = 0.095\nsamples = 26\nvalue = [38, 2]"] ;
524 -> 526 ;
527 [label="smart_9_raw <= 46919.5\ngini = 0.0\nsamples = 40079\nvalue = [63174, 1]"] ;
523 -> 527 ;
528 [label="gini = 0.0\nsamples = 25903\nvalue = [40823, 0]"] ;
527 -> 528 ;
529 [label="smart_9_raw <= 46920.5\ngini = 0.0\nsamples = 14176\nvalue = [22351, 1]"] ;
527 -> 529 ;
530 [label="gini = 0.133\nsamples = 9\nvalue = [13, 1]"] ;
529 -> 530 ;
531 [label="gini = 0.0\nsamples = 14167\nvalue = [22338, 0]"] ;
529 -> 531 ;
532 [label="smart_9_raw <= 27291.5\ngini = 0.0\nsamples = 1512055\nvalue = [2391400, 16]"] ;
510 -> 532 ;
533 [label="gini = 0.0\nsamples = 297369\nvalue = [469931, 0]"] ;
532 -> 533 ;
534 [label="smart_9_raw <= 27292.5\ngini = 0.0\nsamples = 1214686\nvalue = [1921469, 16]"] ;
532 -> 534 ;
535 [label="smart_194_raw <= 27.5\ngini = 0.013\nsamples = 102\nvalue = [152, 1]"] ;
534 -> 535 ;
536 [label="gini = 0.0\nsamples = 61\nvalue = [89, 0]"] ;
535 -> 536 ;
537 [label="smart_194_raw <= 28.5\ngini = 0.031\nsamples = 41\nvalue = [63, 1]"] ;
535 -> 537 ;
538 [label="gini = 0.1\nsamples = 12\nvalue = [18, 1]"] ;
537 -> 538 ;
539 [label="gini = 0.0\nsamples = 29\nvalue = [45, 0]"] ;
537 -> 539 ;
540 [label="smart_9_raw <= 27978.5\ngini = 0.0\nsamples = 1214584\nvalue = [1921317, 15]"] ;
534 -> 540 ;
541 [label="smart_9_raw <= 27977.5\ngini = 0.0\nsamples = 51272\nvalue = [81171, 2]"] ;
540 -> 541 ;
542 [label="gini = 0.0\nsamples = 51194\nvalue = [81056, 0]"] ;
541 -> 542 ;
543 [label="smart_194_raw <= 27.5\ngini = 0.034\nsamples = 78\nvalue = [115, 2]"] ;
541 -> 543 ;
544 [label="gini = 0.0\nsamples = 35\nvalue = [53, 0]"] ;
543 -> 544 ;
545 [label="smart_194_raw <= 28.5\ngini = 0.061\nsamples = 43\nvalue = [62, 2]"] ;
543 -> 545 ;
546 [label="gini = 0.128\nsamples = 18\nvalue = [27, 2]"] ;
545 -> 546 ;
547 [label="gini = 0.0\nsamples = 25\nvalue = [35, 0]"] ;
545 -> 547 ;
548 [label="smart_9_raw <= 37124.5\ngini = 0.0\nsamples = 1163312\nvalue = [1840146, 13]"] ;
540 -> 548 ;
549 [label="smart_9_raw <= 29577.5\ngini = 0.0\nsamples = 575949\nvalue = [910807, 3]"] ;
548 -> 549 ;
550 [label="smart_194_raw <= 25.5\ngini = 0.0\nsamples = 98223\nvalue = [154731, 2]"] ;
549 -> 550 ;
551 [label="smart_194_raw <= 24.5\ngini = 0.0\nsamples = 20599\nvalue = [32485, 1]"] ;
550 -> 551 ;
552 [label="gini = 0.0\nsamples = 10261\nvalue = [16181, 0]"] ;
551 -> 552 ;
553 [label="smart_9_raw <= 29063.5\ngini = 0.0\nsamples = 10338\nvalue = [16304, 1]"] ;
551 -> 553 ;
554 [label="gini = 0.0\nsamples = 7448\nvalue = [11706, 0]"] ;
553 -> 554 ;
555 [label="smart_9_raw <= 29064.5\ngini = 0.0\nsamples = 2890\nvalue = [4598, 1]"] ;
553 -> 555 ;
556 [label="gini = 0.133\nsamples = 9\nvalue = [13, 1]"] ;
555 -> 556 ;
557 [label="gini = 0.0\nsamples = 2881\nvalue = [4585, 0]"] ;
555 -> 557 ;
558 [label="smart_9_raw <= 29576.5\ngini = 0.0\nsamples = 77624\nvalue = [122246, 1]"] ;
550 -> 558 ;
559 [label="gini = 0.0\nsamples = 77591\nvalue = [122199, 0]"] ;
558 -> 559 ;
560 [label="smart_194_raw <= 29.5\ngini = 0.041\nsamples = 33\nvalue = [47, 1]"] ;
558 -> 560 ;
561 [label="gini = 0.0\nsamples = 18\nvalue = [25, 0]"] ;
560 -> 561 ;
562 [label="gini = 0.083\nsamples = 15\nvalue = [22, 1]"] ;
560 -> 562 ;
563 [label="smart_194_raw <= 29.5\ngini = 0.0\nsamples = 477726\nvalue = [756076, 1]"] ;
549 -> 563 ;
564 [label="gini = 0.0\nsamples = 394439\nvalue = [623965, 0]"] ;
563 -> 564 ;
565 [label="smart_9_raw <= 34956.5\ngini = 0.0\nsamples = 83287\nvalue = [132111, 1]"] ;
563 -> 565 ;
566 [label="gini = 0.0\nsamples = 59778\nvalue = [94781, 0]"] ;
565 -> 566 ;
567 [label="smart_9_raw <= 34957.5\ngini = 0.0\nsamples = 23509\nvalue = [37330, 1]"] ;
565 -> 567 ;
568 [label="gini = 0.18\nsamples = 6\nvalue = [9, 1]"] ;
567 -> 568 ;
569 [label="gini = 0.0\nsamples = 23503\nvalue = [37321, 0]"] ;
567 -> 569 ;
570 [label="smart_194_raw <= 25.5\ngini = 0.0\nsamples = 587363\nvalue = [929339, 10]"] ;
548 -> 570 ;
571 [label="smart_9_raw <= 37125.5\ngini = 0.0\nsamples = 251074\nvalue = [397320, 1]"] ;
570 -> 571 ;
572 [label="smart_194_raw <= 24.5\ngini = 0.034\nsamples = 35\nvalue = [56, 1]"] ;
571 -> 572 ;
573 [label="gini = 0.0\nsamples = 22\nvalue = [36, 0]"] ;
572 -> 573 ;
574 [label="gini = 0.091\nsamples = 13\nvalue = [20, 1]"] ;
572 -> 574 ;
575 [label="gini = 0.0\nsamples = 251039\nvalue = [397264, 0]"] ;
571 -> 575 ;
576 [label="smart_194_raw <= 29.5\ngini = 0.0\nsamples = 336289\nvalue = [532019, 9]"] ;
570 -> 576 ;
577 [label="smart_9_raw <= 37471.5\ngini = 0.0\nsamples = 285289\nvalue = [451348, 9]"] ;
576 -> 577 ;
578 [label="smart_9_raw <= 37470.5\ngini = 0.0\nsamples = 13141\nvalue = [20668, 2]"] ;
577 -> 578 ;
579 [label="gini = 0.0\nsamples = 13125\nvalue = [20647, 0]"] ;
578 -> 579 ;
580 [label="smart_194_raw <= 28.5\ngini = 0.159\nsamples = 16\nvalue = [21, 2]"] ;
578 -> 580 ;
581 [label="gini = 0.0\nsamples = 14\nvalue = [19, 0]"] ;
580 -> 581 ;
582 [label="gini = 0.5\nsamples = 2\nvalue = [2, 2]"] ;
580 -> 582 ;
583 [label="smart_194_raw <= 26.5\ngini = 0.0\nsamples = 272148\nvalue = [430680, 7]"] ;
577 -> 583 ;
584 [label="smart_9_raw <= 41922.5\ngini = 0.0\nsamples = 84028\nvalue = [133171, 4]"] ;
583 -> 584 ;
585 [label="gini = 0.0\nsamples = 52218\nvalue = [82950, 0]"] ;
584 -> 585 ;
586 [label="smart_9_raw <= 41923.5\ngini = 0.0\nsamples = 31810\nvalue = [50221, 4]"] ;
584 -> 586 ;
587 [label="gini = 0.128\nsamples = 18\nvalue = [27, 2]"] ;
586 -> 587 ;
588 [label="smart_9_raw <= 44443.5\ngini = 0.0\nsamples = 31792\nvalue = [50194, 2]"] ;
586 -> 588 ;
589 [label="gini = 0.0\nsamples = 18183\nvalue = [28724, 0]"] ;
588 -> 589 ;
590 [label="smart_9_raw <= 44444.5\ngini = 0.0\nsamples = 13609\nvalue = [21470, 2]"] ;
588 -> 590 ;
591 [label="gini = 0.5\nsamples = 2\nvalue = [1, 1]"] ;
590 -> 591 ;
592 [label="smart_9_raw <= 44611.5\ngini = 0.0\nsamples = 13607\nvalue = [21469, 1]"] ;
590 -> 592 ;
593 [label="smart_9_raw <= 44610.5\ngini = 0.001\nsamples = 850\nvalue = [1385, 1]"] ;
592 -> 593 ;
594 [label="gini = 0.0\nsamples = 835\nvalue = [1367, 0]"] ;
593 -> 594 ;
595 [label="gini = 0.1\nsamples = 15\nvalue = [18, 1]"] ;
593 -> 595 ;
596 [label="gini = 0.0\nsamples = 12757\nvalue = [20084, 0]"] ;
592 -> 596 ;
597 [label="smart_9_raw <= 39987.5\ngini = 0.0\nsamples = 188120\nvalue = [297509, 3]"] ;
583 -> 597 ;
598 [label="smart_9_raw <= 39986.5\ngini = 0.0\nsamples = 76642\nvalue = [121219, 3]"] ;
597 -> 598 ;
599 [label="smart_9_raw <= 38614.5\ngini = 0.0\nsamples = 76589\nvalue = [121135, 1]"] ;
598 -> 599 ;
600 [label="smart_194_raw <= 27.5\ngini = 0.0\nsamples = 35310\nvalue = [55884, 1]"] ;
599 -> 600 ;
601 [label="smart_9_raw <= 38613.5\ngini = 0.0\nsamples = 13441\nvalue = [21178, 1]"] ;
600 -> 601 ;
602 [label="gini = 0.0\nsamples = 13417\nvalue = [21140, 0]"] ;
601 -> 602 ;
603 [label="gini = 0.05\nsamples = 24\nvalue = [38, 1]"] ;
601 -> 603 ;
604 [label="gini = 0.0\nsamples = 21869\nvalue = [34706, 0]"] ;
600 -> 604 ;
605 [label="gini = 0.0\nsamples = 41279\nvalue = [65251, 0]"] ;
599 -> 605 ;
606 [label="smart_194_raw <= 27.5\ngini = 0.045\nsamples = 53\nvalue = [84, 2]"] ;
598 -> 606 ;
607 [label="gini = 0.0\nsamples = 28\nvalue = [45, 0]"] ;
606 -> 607 ;
608 [label="smart_194_raw <= 28.5\ngini = 0.093\nsamples = 25\nvalue = [39, 2]"] ;
606 -> 608 ;
609 [label="gini = 0.231\nsamples = 8\nvalue = [13, 2]"] ;
608 -> 609 ;
610 [label="gini = 0.0\nsamples = 17\nvalue = [26, 0]"] ;
608 -> 610 ;
611 [label="gini = 0.0\nsamples = 111478\nvalue = [176290, 0]"] ;
597 -> 611 ;
612 [label="gini = 0.0\nsamples = 51000\nvalue = [80671, 0]"] ;
576 -> 612 ;
613 [label="smart_9_raw <= 24140.5\ngini = 0.0\nsamples = 1095242\nvalue = [1732695, 26]"] ;
509 -> 613 ;
614 [label="smart_9_raw <= 24139.5\ngini = 0.0\nsamples = 13153\nvalue = [20836, 3]"] ;
613 -> 614 ;
615 [label="smart_9_raw <= 24098.5\ngini = 0.0\nsamples = 13035\nvalue = [20661, 1]"] ;
614 -> 615 ;
616 [label="gini = 0.0\nsamples = 9078\nvalue = [14383, 0]"] ;
615 -> 616 ;
617 [label="smart_194_raw <= 32.5\ngini = 0.0\nsamples = 3957\nvalue = [6278, 1]"] ;
615 -> 617 ;
618 [label="smart_9_raw <= 24099.5\ngini = 0.001\nsamples = 1242\nvalue = [1974, 1]"] ;
617 -> 618 ;
619 [label="smart_194_raw <= 31.5\ngini = 0.042\nsamples = 32\nvalue = [46, 1]"] ;
618 -> 619 ;
620 [label="gini = 0.0\nsamples = 16\nvalue = [21, 0]"] ;
619 -> 620 ;
621 [label="gini = 0.074\nsamples = 16\nvalue = [25, 1]"] ;
619 -> 621 ;
622 [label="gini = 0.0\nsamples = 1210\nvalue = [1928, 0]"] ;
618 -> 622 ;
623 [label="gini = 0.0\nsamples = 2715\nvalue = [4304, 0]"] ;
617 -> 623 ;
624 [label="smart_194_raw <= 33.5\ngini = 0.022\nsamples = 118\nvalue = [175, 2]"] ;
614 -> 624 ;
625 [label="gini = 0.0\nsamples = 64\nvalue = [95, 0]"] ;
624 -> 625 ;
626 [label="smart_194_raw <= 34.5\ngini = 0.048\nsamples = 54\nvalue = [80, 2]"] ;
624 -> 626 ;
627 [label="gini = 0.108\nsamples = 24\nvalue = [33, 2]"] ;
626 -> 627 ;
628 [label="gini = 0.0\nsamples = 30\nvalue = [47, 0]"] ;
626 -> 628 ;
629 [label="smart_9_raw <= 25361.5\ngini = 0.0\nsamples = 1082089\nvalue = [1711859, 23]"] ;
613 -> 629 ;
630 [label="smart_9_raw <= 25360.5\ngini = 0.0\nsamples = 138470\nvalue = [219034, 8]"] ;
629 -> 630 ;
631 [label="smart_194_raw <= 33.5\ngini = 0.0\nsamples = 138351\nvalue = [218849, 5]"] ;
630 -> 631 ;
632 [label="smart_194_raw <= 31.5\ngini = 0.0\nsamples = 64593\nvalue = [102498, 5]"] ;
631 -> 632 ;
633 [label="gini = 0.0\nsamples = 22258\nvalue = [35281, 0]"] ;
632 -> 633 ;
634 [label="smart_194_raw <= 32.5\ngini = 0.0\nsamples = 42335\nvalue = [67217, 5]"] ;
632 -> 634 ;
635 [label="smart_9_raw <= 25224.5\ngini = 0.0\nsamples = 21340\nvalue = [33750, 2]"] ;
634 -> 635 ;
636 [label="smart_9_raw <= 24492.5\ngini = 0.0\nsamples = 19044\nvalue = [30051, 1]"] ;
635 -> 636 ;
637 [label="smart_9_raw <= 24491.5\ngini = 0.0\nsamples = 6132\nvalue = [9595, 1]"] ;
636 -> 637 ;
638 [label="gini = 0.0\nsamples = 6122\nvalue = [9581, 0]"] ;
637 -> 638 ;
639 [label="gini = 0.124\nsamples = 10\nvalue = [14, 1]"] ;
637 -> 639 ;
640 [label="gini = 0.0\nsamples = 12912\nvalue = [20456, 0]"] ;
636 -> 640 ;
641 [label="smart_9_raw <= 25225.5\ngini = 0.001\nsamples = 2296\nvalue = [3699, 1]"] ;
635 -> 641 ;
642 [label="gini = 0.029\nsamples = 39\nvalue = [67, 1]"] ;
641 -> 642 ;
643 [label="gini = 0.0\nsamples = 2257\nvalue = [3632, 0]"] ;
641 -> 643 ;
644 [label="smart_9_raw <= 24852.5\ngini = 0.0\nsamples = 20995\nvalue = [33467, 3]"] ;
634 -> 644 ;
645 [label="gini = 0.0\nsamples = 12387\nvalue = [19671, 0]"] ;
644 -> 645 ;
646 [label="smart_9_raw <= 24853.5\ngini = 0.0\nsamples = 8608\nvalue = [13796, 3]"] ;
644 -> 646 ;
647 [label="gini = 0.266\nsamples = 9\nvalue = [16, 3]"] ;
646 -> 647 ;
648 [label="gini = 0.0\nsamples = 8599\nvalue = [13780, 0]"] ;
646 -> 648 ;
649 [label="gini = 0.0\nsamples = 73758\nvalue = [116351, 0]"] ;
631 -> 649 ;
650 [label="smart_194_raw <= 32.5\ngini = 0.031\nsamples = 119\nvalue = [185, 3]"] ;
630 -> 650 ;
651 [label="smart_194_raw <= 31.5\ngini = 0.103\nsamples = 35\nvalue = [52, 3]"] ;
650 -> 651 ;
652 [label="gini = 0.0\nsamples = 17\nvalue = [28, 0]"] ;
651 -> 652 ;
653 [label="gini = 0.198\nsamples = 18\nvalue = [24, 3]"] ;
651 -> 653 ;
654 [label="gini = 0.0\nsamples = 84\nvalue = [133, 0]"] ;
650 -> 654 ;
655 [label="smart_194_raw <= 31.5\ngini = 0.0\nsamples = 943619\nvalue = [1492825, 15]"] ;
629 -> 655 ;
656 [label="smart_9_raw <= 37212.5\ngini = 0.0\nsamples = 188381\nvalue = [297578, 6]"] ;
655 -> 656 ;
657 [label="smart_9_raw <= 29000.5\ngini = 0.0\nsamples = 143655\nvalue = [226784, 2]"] ;
656 -> 657 ;
658 [label="smart_9_raw <= 28999.5\ngini = 0.0\nsamples = 55238\nvalue = [87344, 2]"] ;
657 -> 658 ;
659 [label="gini = 0.0\nsamples = 55224\nvalue = [87327, 0]"] ;
658 -> 659 ;
660 [label="gini = 0.188\nsamples = 14\nvalue = [17, 2]"] ;
658 -> 660 ;
661 [label="gini = 0.0\nsamples = 88417\nvalue = [139440, 0]"] ;
657 -> 661 ;
662 [label="smart_9_raw <= 37213.5\ngini = 0.0\nsamples = 44726\nvalue = [70794, 4]"] ;
656 -> 662 ;
663 [label="gini = 0.26\nsamples = 6\nvalue = [11, 2]"] ;
662 -> 663 ;
664 [label="smart_9_raw <= 40325.5\ngini = 0.0\nsamples = 44720\nvalue = [70783, 2]"] ;
662 -> 664 ;
665 [label="smart_9_raw <= 40324.5\ngini = 0.0\nsamples = 21016\nvalue = [33354, 2]"] ;
664 -> 665 ;
666 [label="gini = 0.0\nsamples = 21006\nvalue = [33343, 0]"] ;
665 -> 666 ;
667 [label="gini = 0.26\nsamples = 10\nvalue = [11, 2]"] ;
665 -> 667 ;
668 [label="gini = 0.0\nsamples = 23704\nvalue = [37429, 0]"] ;
664 -> 668 ;
669 [label="smart_9_raw <= 34441.5\ngini = 0.0\nsamples = 755238\nvalue = [1195247, 9]"] ;
655 -> 669 ;
670 [label="smart_194_raw <= 35.5\ngini = 0.0\nsamples = 558138\nvalue = [883165, 3]"] ;
669 -> 670 ;
671 [label="gini = 0.0\nsamples = 395089\nvalue = [625207, 0]"] ;
670 -> 671 ;
672 [label="smart_9_raw <= 28556.5\ngini = 0.0\nsamples = 163049\nvalue = [257958, 3]"] ;
670 -> 672 ;
673 [label="smart_194_raw <= 36.5\ngini = 0.0\nsamples = 71682\nvalue = [113478, 3]"] ;
672 -> 673 ;
674 [label="smart_9_raw <= 28555.5\ngini = 0.0\nsamples = 37885\nvalue = [60018, 3]"] ;
673 -> 674 ;
675 [label="gini = 0.0\nsamples = 37868\nvalue = [59991, 0]"] ;
674 -> 675 ;
676 [label="gini = 0.18\nsamples = 17\nvalue = [27, 3]"] ;
674 -> 676 ;
677 [label="gini = 0.0\nsamples = 33797\nvalue = [53460, 0]"] ;
673 -> 677 ;
678 [label="gini = 0.0\nsamples = 91367\nvalue = [144480, 0]"] ;
672 -> 678 ;
679 [label="smart_194_raw <= 36.5\ngini = 0.0\nsamples = 197100\nvalue = [312082, 6]"] ;
669 -> 679 ;
680 [label="smart_9_raw <= 34883.5\ngini = 0.0\nsamples = 182635\nvalue = [289158, 3]"] ;
679 -> 680 ;
681 [label="smart_194_raw <= 33.5\ngini = 0.0\nsamples = 12864\nvalue = [20430, 3]"] ;
680 -> 681 ;
682 [label="gini = 0.0\nsamples = 6144\nvalue = [9752, 0]"] ;
681 -> 682 ;
683 [label="smart_9_raw <= 34882.5\ngini = 0.001\nsamples = 6720\nvalue = [10678, 3]"] ;
681 -> 683 ;
684 [label="gini = 0.0\nsamples = 6714\nvalue = [10664, 0]"] ;
683 -> 684 ;
685 [label="smart_194_raw <= 34.5\ngini = 0.291\nsamples = 6\nvalue = [14, 3]"] ;
683 -> 685 ;
686 [label="gini = 0.375\nsamples = 2\nvalue = [1, 3]"] ;
685 -> 686 ;
687 [label="gini = 0.0\nsamples = 4\nvalue = [13, 0]"] ;
685 -> 687 ;
688 [label="gini = 0.0\nsamples = 169771\nvalue = [268728, 0]"] ;
680 -> 688 ;
689 [label="smart_9_raw <= 34442.5\ngini = 0.0\nsamples = 14465\nvalue = [22924, 3]"] ;
679 -> 689 ;
690 [label="gini = 0.375\nsamples = 2\nvalue = [1, 3]"] ;
689 -> 690 ;
691 [label="gini = 0.0\nsamples = 14463\nvalue = [22923, 0]"] ;
689 -> 691 ;
692 [label="smart_194_raw <= 40.5\ngini = 0.0\nsamples = 508169\nvalue = [803284, 1]"] ;
392 -> 692 ;
693 [label="gini = 0.0\nsamples = 418575\nvalue = [661940, 0]"] ;
692 -> 693 ;
694 [label="smart_9_raw <= 28596.5\ngini = 0.0\nsamples = 89594\nvalue = [141344, 1]"] ;
692 -> 694 ;
695 [label="gini = 0.0\nsamples = 61675\nvalue = [97318, 0]"] ;
694 -> 695 ;
696 [label="smart_9_raw <= 28597.5\ngini = 0.0\nsamples = 27919\nvalue = [44026, 1]"] ;
694 -> 696 ;
697 [label="gini = 0.198\nsamples = 6\nvalue = [8, 1]"] ;
696 -> 697 ;
698 [label="gini = 0.0\nsamples = 27913\nvalue = [44018, 0]"] ;
696 -> 698 ;
699 [label="smart_9_raw <= 6369.5\ngini = 0.0\nsamples = 56869\nvalue = [89969, 2]"] ;
49 -> 699 ;
700 [label="smart_187_raw <= 1.5\ngini = 0.001\nsamples = 1124\nvalue = [1762, 1]"] ;
699 -> 700 ;
701 [label="smart_194_raw <= 35.5\ngini = 0.002\nsamples = 664\nvalue = [1052, 1]"] ;
700 -> 701 ;
702 [label="gini = 0.0\nsamples = 642\nvalue = [1017, 0]"] ;
701 -> 702 ;
703 [label="smart_194_raw <= 36.5\ngini = 0.054\nsamples = 22\nvalue = [35, 1]"] ;
701 -> 703 ;
704 [label="smart_9_raw <= 6323.0\ngini = 0.064\nsamples = 19\nvalue = [29, 1]"] ;
703 -> 704 ;
705 [label="gini = 0.0\nsamples = 18\nvalue = [29, 0]"] ;
704 -> 705 ;
706 [label="gini = 0.0\nsamples = 1\nvalue = [0, 1]"] ;
704 -> 706 ;
707 [label="gini = 0.0\nsamples = 3\nvalue = [6, 0]"] ;
703 -> 707 ;
708 [label="gini = 0.0\nsamples = 460\nvalue = [710, 0]"] ;
700 -> 708 ;
709 [label="smart_9_raw <= 37275.5\ngini = 0.0\nsamples = 55745\nvalue = [88207, 1]"] ;
699 -> 709 ;
710 [label="smart_9_raw <= 37274.5\ngini = 0.0\nsamples = 16986\nvalue = [26924, 1]"] ;
709 -> 710 ;
711 [label="gini = 0.0\nsamples = 16981\nvalue = [26918, 0]"] ;
710 -> 711 ;
712 [label="smart_187_raw <= 2.0\ngini = 0.245\nsamples = 5\nvalue = [6, 1]"] ;
710 -> 712 ;
713 [label="gini = 0.0\nsamples = 3\nvalue = [4, 0]"] ;
712 -> 713 ;
714 [label="smart_194_raw <= 27.5\ngini = 0.444\nsamples = 2\nvalue = [2, 1]"] ;
712 -> 714 ;
715 [label="gini = 0.0\nsamples = 1\nvalue = [0, 1]"] ;
714 -> 715 ;
716 [label="gini = 0.0\nsamples = 1\nvalue = [2, 0]"] ;
714 -> 716 ;
717 [label="gini = 0.0\nsamples = 38759\nvalue = [61283, 0]"] ;
709 -> 717 ;
718 [label="gini = 0.0\nsamples = 139348\nvalue = [220428, 0]"] ;
48 -> 718 ;
719 [label="smart_9_raw <= 8989.5\ngini = 0.001\nsamples = 7426\nvalue = [11802, 3]"] ;
47 -> 719 ;
720 [label="smart_194_raw <= 35.5\ngini = 0.006\nsamples = 433\nvalue = [683, 2]"] ;
719 -> 720 ;
721 [label="gini = 0.0\nsamples = 293\nvalue = [455, 0]"] ;
720 -> 721 ;
722 [label="smart_187_raw <= 8.5\ngini = 0.017\nsamples = 140\nvalue = [228, 2]"] ;
720 -> 722 ;
723 [label="smart_9_raw <= 8951.0\ngini = 0.444\nsamples = 4\nvalue = [4, 2]"] ;
722 -> 723 ;
724 [label="gini = 0.0\nsamples = 3\nvalue = [4, 0]"] ;
723 -> 724 ;
725 [label="gini = 0.0\nsamples = 1\nvalue = [0, 2]"] ;
723 -> 725 ;
726 [label="gini = 0.0\nsamples = 136\nvalue = [224, 0]"] ;
722 -> 726 ;
727 [label="smart_9_raw <= 38605.5\ngini = 0.0\nsamples = 6993\nvalue = [11119, 1]"] ;
719 -> 727 ;
728 [label="smart_194_raw <= 25.5\ngini = 0.001\nsamples = 2244\nvalue = [3566, 1]"] ;
727 -> 728 ;
729 [label="smart_194_raw <= 24.5\ngini = 0.001\nsamples = 949\nvalue = [1502, 1]"] ;
728 -> 729 ;
730 [label="gini = 0.0\nsamples = 737\nvalue = [1169, 0]"] ;
729 -> 730 ;
731 [label="smart_5_raw <= 4.0\ngini = 0.006\nsamples = 212\nvalue = [333, 1]"] ;
729 -> 731 ;
732 [label="smart_187_raw <= 10.5\ngini = 0.01\nsamples = 125\nvalue = [204, 1]"] ;
731 -> 732 ;
733 [label="gini = 0.0\nsamples = 49\nvalue = [77, 0]"] ;
732 -> 733 ;
734 [label="smart_187_raw <= 11.5\ngini = 0.016\nsamples = 76\nvalue = [127, 1]"] ;
732 -> 734 ;
735 [label="smart_9_raw <= 38569.0\ngini = 0.028\nsamples = 43\nvalue = [70, 1]"] ;
734 -> 735 ;
736 [label="gini = 0.0\nsamples = 42\nvalue = [70, 0]"] ;
735 -> 736 ;
737 [label="gini = 0.0\nsamples = 1\nvalue = [0, 1]"] ;
735 -> 737 ;
738 [label="gini = 0.0\nsamples = 33\nvalue = [57, 0]"] ;
734 -> 738 ;
739 [label="gini = 0.0\nsamples = 87\nvalue = [129, 0]"] ;
731 -> 739 ;
740 [label="gini = 0.0\nsamples = 1295\nvalue = [2064, 0]"] ;
728 -> 740 ;
741 [label="gini = 0.0\nsamples = 4749\nvalue = [7553, 0]"] ;
727 -> 741 ;
742 [label="smart_9_raw <= 3880.0\ngini = 0.003\nsamples = 2506\nvalue = [3944, 5]"] ;
46 -> 742 ;
743 [label="smart_9_raw <= 3824.5\ngini = 0.036\nsamples = 72\nvalue = [108, 2]"] ;
742 -> 743 ;
744 [label="smart_9_raw <= 1013.5\ngini = 0.018\nsamples = 71\nvalue = [108, 1]"] ;
743 -> 744 ;
745 [label="smart_187_raw <= 124.0\ngini = 0.064\nsamples = 18\nvalue = [29, 1]"] ;
744 -> 745 ;
746 [label="smart_194_raw <= 28.5\ngini = 0.091\nsamples = 12\nvalue = [20, 1]"] ;
745 -> 746 ;
747 [label="gini = 0.0\nsamples = 10\nvalue = [18, 0]"] ;
746 -> 747 ;
748 [label="smart_9_raw <= 782.5\ngini = 0.444\nsamples = 2\nvalue = [2, 1]"] ;
746 -> 748 ;
749 [label="gini = 0.0\nsamples = 1\nvalue = [2, 0]"] ;
748 -> 749 ;
750 [label="gini = 0.0\nsamples = 1\nvalue = [0, 1]"] ;
748 -> 750 ;
751 [label="gini = 0.0\nsamples = 6\nvalue = [9, 0]"] ;
745 -> 751 ;
752 [label="gini = 0.0\nsamples = 53\nvalue = [79, 0]"] ;
744 -> 752 ;
753 [label="gini = 0.0\nsamples = 1\nvalue = [0, 1]"] ;
743 -> 753 ;
754 [label="smart_187_raw <= 18.5\ngini = 0.002\nsamples = 2434\nvalue = [3836, 3]"] ;
742 -> 754 ;
755 [label="smart_5_raw <= 4.0\ngini = 0.014\nsamples = 259\nvalue = [435, 3]"] ;
754 -> 755 ;
756 [label="smart_194_raw <= 20.5\ngini = 0.014\nsamples = 244\nvalue = [409, 3]"] ;
755 -> 756 ;
757 [label="smart_9_raw <= 38385.5\ngini = 0.031\nsamples = 80\nvalue = [127, 2]"] ;
756 -> 757 ;
758 [label="smart_9_raw <= 37544.0\ngini = 0.245\nsamples = 9\nvalue = [12, 2]"] ;
757 -> 758 ;
759 [label="gini = 0.0\nsamples = 8\nvalue = [12, 0]"] ;
758 -> 759 ;
760 [label="gini = 0.0\nsamples = 1\nvalue = [0, 2]"] ;
758 -> 760 ;
761 [label="gini = 0.0\nsamples = 71\nvalue = [115, 0]"] ;
757 -> 761 ;
762 [label="smart_9_raw <= 44657.0\ngini = 0.007\nsamples = 164\nvalue = [282, 1]"] ;
756 -> 762 ;
763 [label="gini = 0.0\nsamples = 110\nvalue = [191, 0]"] ;
762 -> 763 ;
764 [label="smart_194_raw <= 27.5\ngini = 0.022\nsamples = 54\nvalue = [91, 1]"] ;
762 -> 764 ;
765 [label="gini = 0.0\nsamples = 53\nvalue = [91, 0]"] ;
764 -> 765 ;
766 [label="gini = 0.0\nsamples = 1\nvalue = [0, 1]"] ;
764 -> 766 ;
767 [label="gini = 0.0\nsamples = 15\nvalue = [26, 0]"] ;
755 -> 767 ;
768 [label="gini = 0.0\nsamples = 2175\nvalue = [3401, 0]"] ;
754 -> 768 ;
769 [label="gini = 0.0\nsamples = 34778\nvalue = [54853, 0]"] ;
45 -> 769 ;
770 [label="smart_5_raw <= 7.0\ngini = 0.0\nsamples = 359523\nvalue = [569450, 16]"] ;
44 -> 770 ;
771 [label="smart_194_raw <= 45.5\ngini = 0.0\nsamples = 350647\nvalue = [555415, 14]"] ;
770 -> 771 ;
772 [label="smart_187_raw <= 0.5\ngini = 0.0\nsamples = 275885\nvalue = [437098, 13]"] ;
771 -> 772 ;
773 [label="smart_5_raw <= 0.5\ngini = 0.0\nsamples = 274143\nvalue = [434329, 13]"] ;
772 -> 773 ;
774 [label="smart_9_raw <= 32682.5\ngini = 0.0\nsamples = 273529\nvalue = [433365, 13]"] ;
773 -> 774 ;
775 [label="smart_9_raw <= 259.5\ngini = 0.0\nsamples = 251579\nvalue = [398687, 8]"] ;
774 -> 775 ;
776 [label="smart_194_raw <= 42.5\ngini = 0.001\nsamples = 1576\nvalue = [2517, 1]"] ;
775 -> 776 ;
777 [label="smart_9_raw <= 258.5\ngini = 0.002\nsamples = 574\nvalue = [920, 1]"] ;
776 -> 777 ;
778 [label="gini = 0.0\nsamples = 568\nvalue = [913, 0]"] ;
777 -> 778 ;
779 [label="gini = 0.219\nsamples = 6\nvalue = [7, 1]"] ;
777 -> 779 ;
780 [label="gini = 0.0\nsamples = 1002\nvalue = [1597, 0]"] ;
776 -> 780 ;
781 [label="smart_9_raw <= 5757.5\ngini = 0.0\nsamples = 250003\nvalue = [396170, 7]"] ;
775 -> 781 ;
782 [label="gini = 0.0\nsamples = 92447\nvalue = [146334, 0]"] ;
781 -> 782 ;
783 [label="smart_194_raw <= 42.5\ngini = 0.0\nsamples = 157556\nvalue = [249836, 7]"] ;
781 -> 783 ;
784 [label="smart_188_raw <= 0.5\ngini = 0.0\nsamples = 58297\nvalue = [92498, 5]"] ;
783 -> 784 ;
785 [label="smart_9_raw <= 5758.5\ngini = 0.0\nsamples = 58227\nvalue = [92392, 5]"] ;
784 -> 785 ;
786 [label="gini = 0.355\nsamples = 8\nvalue = [10, 3]"] ;
785 -> 786 ;
787 [label="smart_9_raw <= 9259.5\ngini = 0.0\nsamples = 58219\nvalue = [92382, 2]"] ;
785 -> 787 ;
788 [label="smart_9_raw <= 9258.0\ngini = 0.0\nsamples = 6829\nvalue = [10879, 2]"] ;
787 -> 788 ;
789 [label="gini = 0.0\nsamples = 6827\nvalue = [10878, 0]"] ;
788 -> 789 ;
790 [label="gini = 0.444\nsamples = 2\nvalue = [1, 2]"] ;
788 -> 790 ;
791 [label="gini = 0.0\nsamples = 51390\nvalue = [81503, 0]"] ;
787 -> 791 ;
792 [label="gini = 0.0\nsamples = 70\nvalue = [106, 0]"] ;
784 -> 792 ;
793 [label="smart_9_raw <= 24817.5\ngini = 0.0\nsamples = 99259\nvalue = [157338, 2]"] ;
783 -> 793 ;
794 [label="gini = 0.0\nsamples = 51132\nvalue = [81292, 0]"] ;
793 -> 794 ;
795 [label="smart_188_raw <= 0.5\ngini = 0.0\nsamples = 48127\nvalue = [76046, 2]"] ;
793 -> 795 ;
796 [label="smart_194_raw <= 43.5\ngini = 0.0\nsamples = 48063\nvalue = [75948, 2]"] ;
795 -> 796 ;
797 [label="gini = 0.0\nsamples = 21412\nvalue = [33799, 0]"] ;
796 -> 797 ;
798 [label="smart_9_raw <= 24818.5\ngini = 0.0\nsamples = 26651\nvalue = [42149, 2]"] ;
796 -> 798 ;
799 [label="smart_194_raw <= 44.5\ngini = 0.278\nsamples = 9\nvalue = [10, 2]"] ;
798 -> 799 ;
800 [label="gini = 0.5\nsamples = 3\nvalue = [2, 2]"] ;
799 -> 800 ;
801 [label="gini = 0.0\nsamples = 6\nvalue = [8, 0]"] ;
799 -> 801 ;
802 [label="gini = 0.0\nsamples = 26642\nvalue = [42139, 0]"] ;
798 -> 802 ;
803 [label="gini = 0.0\nsamples = 64\nvalue = [98, 0]"] ;
795 -> 803 ;
804 [label="smart_194_raw <= 43.5\ngini = 0.0\nsamples = 21950\nvalue = [34678, 5]"] ;
774 -> 804 ;
805 [label="gini = 0.0\nsamples = 15209\nvalue = [24040, 0]"] ;
804 -> 805 ;
806 [label="smart_9_raw <= 32683.5\ngini = 0.001\nsamples = 6741\nvalue = [10638, 5]"] ;
804 -> 806 ;
807 [label="smart_194_raw <= 44.5\ngini = 0.444\nsamples = 2\nvalue = [1, 2]"] ;
806 -> 807 ;
808 [label="gini = 0.0\nsamples = 1\nvalue = [0, 2]"] ;
807 -> 808 ;
809 [label="gini = 0.0\nsamples = 1\nvalue = [1, 0]"] ;
807 -> 809 ;
810 [label="smart_194_raw <= 44.5\ngini = 0.001\nsamples = 6739\nvalue = [10637, 3]"] ;
806 -> 810 ;
811 [label="gini = 0.0\nsamples = 3918\nvalue = [6184, 0]"] ;
810 -> 811 ;
812 [label="smart_9_raw <= 34823.5\ngini = 0.001\nsamples = 2821\nvalue = [4453, 3]"] ;
810 -> 812 ;
813 [label="smart_9_raw <= 34815.5\ngini = 0.003\nsamples = 1335\nvalue = [2042, 3]"] ;
812 -> 813 ;
814 [label="gini = 0.0\nsamples = 1334\nvalue = [2042, 0]"] ;
813 -> 814 ;
815 [label="gini = 0.0\nsamples = 1\nvalue = [0, 3]"] ;
813 -> 815 ;
816 [label="gini = 0.0\nsamples = 1486\nvalue = [2411, 0]"] ;
812 -> 816 ;
817 [label="gini = 0.0\nsamples = 614\nvalue = [964, 0]"] ;
773 -> 817 ;
818 [label="gini = 0.0\nsamples = 1742\nvalue = [2769, 0]"] ;
772 -> 818 ;
819 [label="smart_188_raw <= 0.5\ngini = 0.0\nsamples = 74762\nvalue = [118317, 1]"] ;
771 -> 819 ;
820 [label="smart_194_raw <= 47.5\ngini = 0.0\nsamples = 74657\nvalue = [118139, 1]"] ;
819 -> 820 ;
821 [label="gini = 0.0\nsamples = 49495\nvalue = [78324, 0]"] ;
820 -> 821 ;
822 [label="smart_9_raw <= 22949.5\ngini = 0.0\nsamples = 25162\nvalue = [39815, 1]"] ;
820 -> 822 ;
823 [label="gini = 0.0\nsamples = 12813\nvalue = [20370, 0]"] ;
822 -> 823 ;
824 [label="smart_194_raw <= 48.5\ngini = 0.0\nsamples = 12349\nvalue = [19445, 1]"] ;
822 -> 824 ;
825 [label="smart_9_raw <= 22952.5\ngini = 0.0\nsamples = 5158\nvalue = [8199, 1]"] ;
824 -> 825 ;
826 [label="gini = 0.0\nsamples = 1\nvalue = [0, 1]"] ;
825 -> 826 ;
827 [label="gini = 0.0\nsamples = 5157\nvalue = [8199, 0]"] ;
825 -> 827 ;
828 [label="gini = 0.0\nsamples = 7191\nvalue = [11246, 0]"] ;
824 -> 828 ;
829 [label="gini = 0.0\nsamples = 105\nvalue = [178, 0]"] ;
819 -> 829 ;
830 [label="smart_187_raw <= 47.0\ngini = 0.0\nsamples = 8876\nvalue = [14035, 2]"] ;
770 -> 830 ;
831 [label="gini = 0.0\nsamples = 8875\nvalue = [14035, 0]"] ;
830 -> 831 ;
832 [label="gini = 0.0\nsamples = 1\nvalue = [0, 2]"] ;
830 -> 832 ;
833 [label="smart_5_raw <= 6.5\ngini = 0.0\nsamples = 208948\nvalue = [330890, 22]"] ;
43 -> 833 ;
834 [label="smart_187_raw <= 10.5\ngini = 0.0\nsamples = 204649\nvalue = [324170, 21]"] ;
833 -> 834 ;
835 [label="smart_188_raw <= 24.5\ngini = 0.0\nsamples = 204464\nvalue = [323892, 20]"] ;
834 -> 835 ;
836 [label="smart_9_raw <= 44497.5\ngini = 0.02\nsamples = 53\nvalue = [97, 1]"] ;
835 -> 836 ;
837 [label="gini = 0.0\nsamples = 52\nvalue = [97, 0]"] ;
836 -> 837 ;
838 [label="gini = 0.0\nsamples = 1\nvalue = [0, 1]"] ;
836 -> 838 ;
839 [label="smart_188_raw <= 96638664704.0\ngini = 0.0\nsamples = 204411\nvalue = [323795, 19]"] ;
835 -> 839 ;
840 [label="smart_9_raw <= 21906.5\ngini = 0.0\nsamples = 199988\nvalue = [316791, 17]"] ;
839 -> 840 ;
841 [label="smart_5_raw <= 0.5\ngini = 0.0\nsamples = 92080\nvalue = [145991, 17]"] ;
840 -> 841 ;
842 [label="smart_188_raw <= 21476343808.0\ngini = 0.0\nsamples = 91846\nvalue = [145618, 17]"] ;
841 -> 842 ;
843 [label="smart_9_raw <= 21905.5\ngini = 0.0\nsamples = 81542\nvalue = [129148, 17]"] ;
842 -> 843 ;
844 [label="smart_194_raw <= 31.5\ngini = 0.0\nsamples = 81536\nvalue = [129140, 15]"] ;
843 -> 844 ;
845 [label="smart_194_raw <= 20.5\ngini = 0.0\nsamples = 52770\nvalue = [83631, 5]"] ;
844 -> 845 ;
846 [label="smart_194_raw <= 19.5\ngini = 0.001\nsamples = 2643\nvalue = [4147, 2]"] ;
845 -> 846 ;
847 [label="gini = 0.0\nsamples = 1173\nvalue = [1864, 0]"] ;
846 -> 847 ;
848 [label="smart_187_raw <= 3.5\ngini = 0.002\nsamples = 1470\nvalue = [2283, 2]"] ;
846 -> 848 ;
849 [label="smart_188_raw <= 4297129984.0\ngini = 0.002\nsamples = 1462\nvalue = [2271, 2]"] ;
848 -> 849 ;
850 [label="gini = 0.0\nsamples = 1193\nvalue = [1879, 0]"] ;
849 -> 850 ;
851 [label="smart_188_raw <= 4297424896.0\ngini = 0.01\nsamples = 269\nvalue = [392, 2]"] ;
849 -> 851 ;
852 [label="gini = 0.0\nsamples = 1\nvalue = [0, 2]"] ;
851 -> 852 ;
853 [label="gini = 0.0\nsamples = 268\nvalue = [392, 0]"] ;
851 -> 853 ;
854 [label="gini = 0.0\nsamples = 8\nvalue = [12, 0]"] ;
848 -> 854 ;
855 [label="smart_187_raw <= 0.5\ngini = 0.0\nsamples = 50127\nvalue = [79484, 3]"] ;
845 -> 855 ;
856 [label="smart_194_raw <= 28.5\ngini = 0.0\nsamples = 49973\nvalue = [79233, 3]"] ;
855 -> 856 ;
857 [label="smart_194_raw <= 26.5\ngini = 0.0\nsamples = 29459\nvalue = [46661, 3]"] ;
856 -> 857 ;
858 [label="gini = 0.0\nsamples = 16894\nvalue = [26795, 0]"] ;
857 -> 858 ;
859 [label="smart_9_raw <= 15935.5\ngini = 0.0\nsamples = 12565\nvalue = [19866, 3]"] ;
857 -> 859 ;
860 [label="smart_194_raw <= 27.5\ngini = 0.0\nsamples = 9548\nvalue = [15131, 1]"] ;
859 -> 860 ;
861 [label="gini = 0.0\nsamples = 4292\nvalue = [6776, 0]"] ;
860 -> 861 ;
862 [label="smart_188_raw <= 4295065600.0\ngini = 0.0\nsamples = 5256\nvalue = [8355, 1]"] ;
860 -> 862 ;
863 [label="smart_9_raw <= 11917.0\ngini = 0.0\nsamples = 4097\nvalue = [6505, 1]"] ;
862 -> 863 ;
864 [label="gini = 0.0\nsamples = 2502\nvalue = [3939, 0]"] ;
863 -> 864 ;
865 [label="smart_9_raw <= 11923.5\ngini = 0.001\nsamples = 1595\nvalue = [2566, 1]"] ;
863 -> 865 ;
866 [label="gini = 0.0\nsamples = 1\nvalue = [0, 1]"] ;
865 -> 866 ;
867 [label="gini = 0.0\nsamples = 1594\nvalue = [2566, 0]"] ;
865 -> 867 ;
868 [label="gini = 0.0\nsamples = 1159\nvalue = [1850, 0]"] ;
862 -> 868 ;
869 [label="smart_188_raw <= 6442975232.0\ngini = 0.001\nsamples = 3017\nvalue = [4735, 2]"] ;
859 -> 869 ;
870 [label="gini = 0.0\nsamples = 2002\nvalue = [3126, 0]"] ;
869 -> 870 ;
871 [label="smart_194_raw <= 27.5\ngini = 0.002\nsamples = 1015\nvalue = [1609, 2]"] ;
869 -> 871 ;
872 [label="smart_188_raw <= 8590163968.0\ngini = 0.004\nsamples = 601\nvalue = [958, 2]"] ;
871 -> 872 ;
873 [label="smart_9_raw <= 15961.5\ngini = 0.015\nsamples = 178\nvalue = [270, 2]"] ;
872 -> 873 ;
874 [label="gini = 0.0\nsamples = 1\nvalue = [0, 2]"] ;
873 -> 874 ;
875 [label="gini = 0.0\nsamples = 177\nvalue = [270, 0]"] ;
873 -> 875 ;
876 [label="gini = 0.0\nsamples = 423\nvalue = [688, 0]"] ;
872 -> 876 ;
877 [label="gini = 0.0\nsamples = 414\nvalue = [651, 0]"] ;
871 -> 877 ;
878 [label="gini = 0.0\nsamples = 20514\nvalue = [32572, 0]"] ;
856 -> 878 ;
879 [label="gini = 0.0\nsamples = 154\nvalue = [251, 0]"] ;
855 -> 879 ;
880 [label="smart_9_raw <= 9625.5\ngini = 0.0\nsamples = 28766\nvalue = [45509, 10]"] ;
844 -> 880 ;
881 [label="smart_188_raw <= 21475491840.0\ngini = 0.001\nsamples = 16605\nvalue = [26201, 10]"] ;
880 -> 881 ;
882 [label="smart_194_raw <= 32.5\ngini = 0.001\nsamples = 16604\nvalue = [26201, 9]"] ;
881 -> 882 ;
883 [label="smart_188_raw <= 4295065600.0\ngini = 0.003\nsamples = 2715\nvalue = [4294, 7]"] ;
882 -> 883 ;
884 [label="smart_188_raw <= 2147811356.0\ngini = 0.004\nsamples = 2163\nvalue = [3409, 7]"] ;
883 -> 884 ;
885 [label="gini = 0.0\nsamples = 103\nvalue = [159, 0]"] ;
884 -> 885 ;
886 [label="smart_9_raw <= 9621.0\ngini = 0.004\nsamples = 2060\nvalue = [3250, 7]"] ;
884 -> 886 ;
887 [label="smart_187_raw <= 2.0\ngini = 0.001\nsamples = 2057\nvalue = [3247, 2]"] ;
886 -> 887 ;
888 [label="smart_9_raw <= 4936.5\ngini = 0.001\nsamples = 2049\nvalue = [3231, 2]"] ;
887 -> 888 ;
889 [label="smart_9_raw <= 4929.0\ngini = 0.006\nsamples = 404\nvalue = [632, 2]"] ;
888 -> 889 ;
890 [label="gini = 0.0\nsamples = 403\nvalue = [632, 0]"] ;
889 -> 890 ;
891 [label="gini = 0.0\nsamples = 1\nvalue = [0, 2]"] ;
889 -> 891 ;
892 [label="gini = 0.0\nsamples = 1645\nvalue = [2599, 0]"] ;
888 -> 892 ;
893 [label="gini = 0.0\nsamples = 8\nvalue = [16, 0]"] ;
887 -> 893 ;
894 [label="gini = 0.469\nsamples = 3\nvalue = [3, 5]"] ;
886 -> 894 ;
895 [label="gini = 0.0\nsamples = 552\nvalue = [885, 0]"] ;
883 -> 895 ;
896 [label="smart_188_raw <= 15032844288.0\ngini = 0.0\nsamples = 13889\nvalue = [21907, 2]"] ;
882 -> 896 ;
897 [label="gini = 0.0\nsamples = 13132\nvalue = [20708, 0]"] ;
896 -> 897 ;
898 [label="smart_194_raw <= 37.5\ngini = 0.003\nsamples = 757\nvalue = [1199, 2]"] ;
896 -> 898 ;
899 [label="smart_9_raw <= 3214.0\ngini = 0.006\nsamples = 430\nvalue = [672, 2]"] ;
898 -> 899 ;
900 [label="gini = 0.0\nsamples = 240\nvalue = [370, 0]"] ;
899 -> 900 ;
901 [label="smart_9_raw <= 3253.5\ngini = 0.013\nsamples = 190\nvalue = [302, 2]"] ;
899 -> 901 ;
902 [label="gini = 0.0\nsamples = 1\nvalue = [0, 1]"] ;
901 -> 902 ;
903 [label="smart_188_raw <= 17180196864.0\ngini = 0.007\nsamples = 189\nvalue = [302, 1]"] ;
901 -> 903 ;
904 [label="smart_194_raw <= 36.5\ngini = 0.012\nsamples = 102\nvalue = [158, 1]"] ;
903 -> 904 ;
905 [label="gini = 0.0\nsamples = 99\nvalue = [154, 0]"] ;
904 -> 905 ;
906 [label="smart_9_raw <= 5373.5\ngini = 0.32\nsamples = 3\nvalue = [4, 1]"] ;
904 -> 906 ;
907 [label="gini = 0.0\nsamples = 1\nvalue = [2, 0]"] ;
906 -> 907 ;
908 [label="gini = 0.444\nsamples = 2\nvalue = [2, 1]"] ;
906 -> 908 ;
909 [label="gini = 0.0\nsamples = 87\nvalue = [144, 0]"] ;
903 -> 909 ;
910 [label="gini = 0.0\nsamples = 327\nvalue = [527, 0]"] ;
898 -> 910 ;
911 [label="gini = 0.0\nsamples = 1\nvalue = [0, 1]"] ;
881 -> 911 ;
912 [label="gini = 0.0\nsamples = 12161\nvalue = [19308, 0]"] ;
880 -> 912 ;
913 [label="smart_194_raw <= 33.5\ngini = 0.32\nsamples = 6\nvalue = [8, 2]"] ;
843 -> 913 ;
914 [label="gini = 0.0\nsamples = 5\nvalue = [8, 0]"] ;
913 -> 914 ;
915 [label="gini = 0.0\nsamples = 1\nvalue = [0, 2]"] ;
913 -> 915 ;
916 [label="gini = 0.0\nsamples = 10304\nvalue = [16470, 0]"] ;
842 -> 916 ;
917 [label="gini = 0.0\nsamples = 234\nvalue = [373, 0]"] ;
841 -> 917 ;
918 [label="gini = 0.0\nsamples = 107908\nvalue = [170800, 0]"] ;
840 -> 918 ;
919 [label="smart_187_raw <= 0.5\ngini = 0.001\nsamples = 4423\nvalue = [7004, 2]"] ;
839 -> 919 ;
920 [label="smart_5_raw <= 0.5\ngini = 0.0\nsamples = 4418\nvalue = [7000, 1]"] ;
919 -> 920 ;
921 [label="smart_9_raw <= 10366.0\ngini = 0.0\nsamples = 4362\nvalue = [6909, 1]"] ;
920 -> 921 ;
922 [label="smart_188_raw <= 100933271552.0\ngini = 0.002\nsamples = 757\nvalue = [1203, 1]"] ;
921 -> 922 ;
923 [label="smart_9_raw <= 10356.5\ngini = 0.029\nsamples = 45\nvalue = [67, 1]"] ;
922 -> 923 ;
924 [label="gini = 0.0\nsamples = 44\nvalue = [67, 0]"] ;
923 -> 924 ;
925 [label="gini = 0.0\nsamples = 1\nvalue = [0, 1]"] ;
923 -> 925 ;
926 [label="gini = 0.0\nsamples = 712\nvalue = [1136, 0]"] ;
922 -> 926 ;
927 [label="gini = 0.0\nsamples = 3605\nvalue = [5706, 0]"] ;
921 -> 927 ;
928 [label="gini = 0.0\nsamples = 56\nvalue = [91, 0]"] ;
920 -> 928 ;
929 [label="smart_194_raw <= 21.5\ngini = 0.32\nsamples = 5\nvalue = [4, 1]"] ;
919 -> 929 ;
930 [label="gini = 0.0\nsamples = 1\nvalue = [0, 1]"] ;
929 -> 930 ;
931 [label="gini = 0.0\nsamples = 4\nvalue = [4, 0]"] ;
929 -> 931 ;
932 [label="smart_194_raw <= 31.5\ngini = 0.007\nsamples = 185\nvalue = [278, 1]"] ;
834 -> 932 ;
933 [label="gini = 0.0\nsamples = 151\nvalue = [229, 0]"] ;
932 -> 933 ;
934 [label="smart_9_raw <= 6069.0\ngini = 0.039\nsamples = 34\nvalue = [49, 1]"] ;
932 -> 934 ;
935 [label="gini = 0.0\nsamples = 30\nvalue = [43, 0]"] ;
934 -> 935 ;
936 [label="smart_9_raw <= 7858.0\ngini = 0.245\nsamples = 4\nvalue = [6, 1]"] ;
934 -> 936 ;
937 [label="gini = 0.0\nsamples = 1\nvalue = [0, 1]"] ;
936 -> 937 ;
938 [label="gini = 0.0\nsamples = 3\nvalue = [6, 0]"] ;
936 -> 938 ;
939 [label="smart_9_raw <= 5681.0\ngini = 0.0\nsamples = 4299\nvalue = [6720, 1]"] ;
833 -> 939 ;
940 [label="smart_194_raw <= 44.5\ngini = 0.012\nsamples = 101\nvalue = [165, 1]"] ;
939 -> 940 ;
941 [label="gini = 0.0\nsamples = 100\nvalue = [165, 0]"] ;
940 -> 941 ;
942 [label="gini = 0.0\nsamples = 1\nvalue = [0, 1]"] ;
940 -> 942 ;
943 [label="gini = 0.0\nsamples = 4198\nvalue = [6555, 0]"] ;
939 -> 943 ;
944 [label="smart_9_raw <= 51311.5\ngini = 0.001\nsamples = 5952\nvalue = [9365, 3]"] ;
42 -> 944 ;
945 [label="smart_187_raw <= 7.0\ngini = 0.142\nsamples = 23\nvalue = [36, 3]"] ;
944 -> 945 ;
946 [label="smart_194_raw <= 17.0\ngini = 0.145\nsamples = 22\nvalue = [35, 3]"] ;
945 -> 946 ;
947 [label="smart_194_raw <= 15.5\ngini = 0.291\nsamples = 10\nvalue = [14, 3]"] ;
946 -> 947 ;
948 [label="gini = 0.0\nsamples = 2\nvalue = [2, 0]"] ;
947 -> 948 ;
949 [label="gini = 0.32\nsamples = 8\nvalue = [12, 3]"] ;
947 -> 949 ;
950 [label="gini = 0.0\nsamples = 12\nvalue = [21, 0]"] ;
946 -> 950 ;
951 [label="gini = 0.0\nsamples = 1\nvalue = [1, 0]"] ;
945 -> 951 ;
952 [label="gini = 0.0\nsamples = 5929\nvalue = [9329, 0]"] ;
944 -> 952 ;
953 [label="smart_194_raw <= 30.5\ngini = 0.027\nsamples = 242\nvalue = [363, 5]"] ;
41 -> 953 ;
954 [label="smart_194_raw <= 22.5\ngini = 0.007\nsamples = 203\nvalue = [303, 1]"] ;
953 -> 954 ;
955 [label="smart_194_raw <= 21.5\ngini = 0.013\nsamples = 100\nvalue = [149, 1]"] ;
954 -> 955 ;
956 [label="gini = 0.0\nsamples = 99\nvalue = [149, 0]"] ;
955 -> 956 ;
957 [label="gini = 0.0\nsamples = 1\nvalue = [0, 1]"] ;
955 -> 957 ;
958 [label="gini = 0.0\nsamples = 103\nvalue = [154, 0]"] ;
954 -> 958 ;
959 [label="smart_194_raw <= 31.5\ngini = 0.117\nsamples = 39\nvalue = [60, 4]"] ;
953 -> 959 ;
960 [label="smart_188_raw <= 32768.5\ngini = 0.48\nsamples = 7\nvalue = [6, 4]"] ;
959 -> 960 ;
961 [label="gini = 0.32\nsamples = 2\nvalue = [1, 4]"] ;
960 -> 961 ;
962 [label="gini = 0.0\nsamples = 5\nvalue = [5, 0]"] ;
960 -> 962 ;
963 [label="gini = 0.0\nsamples = 32\nvalue = [54, 0]"] ;
959 -> 963 ;
964 [label="smart_9_raw <= 39384.5\ngini = 0.0\nsamples = 83186\nvalue = [131888, 15]"] ;
40 -> 964 ;
965 [label="smart_187_raw <= 811.0\ngini = 0.0\nsamples = 81865\nvalue = [129787, 11]"] ;
964 -> 965 ;
966 [label="smart_188_raw <= 2147581953.0\ngini = 0.0\nsamples = 81746\nvalue = [129595, 10]"] ;
965 -> 966 ;
967 [label="smart_187_raw <= 0.5\ngini = 0.0\nsamples = 77747\nvalue = [123265, 8]"] ;
966 -> 967 ;
968 [label="smart_9_raw <= 24859.5\ngini = 0.0\nsamples = 72281\nvalue = [114532, 8]"] ;
967 -> 968 ;
969 [label="smart_194_raw <= 28.5\ngini = 0.0\nsamples = 38345\nvalue = [60643, 7]"] ;
968 -> 969 ;
970 [label="smart_188_raw <= 0.5\ngini = 0.0\nsamples = 22865\nvalue = [36224, 2]"] ;
969 -> 970 ;
971 [label="smart_5_raw <= 16.5\ngini = 0.0\nsamples = 22797\nvalue = [36121, 2]"] ;
970 -> 971 ;
972 [label="smart_9_raw <= 24858.5\ngini = 0.0\nsamples = 9864\nvalue = [15654, 2]"] ;
971 -> 972 ;
973 [label="gini = 0.0\nsamples = 9859\nvalue = [15649, 0]"] ;
972 -> 973 ;
974 [label="smart_194_raw <= 24.0\ngini = 0.408\nsamples = 5\nvalue = [5, 2]"] ;
972 -> 974 ;
975 [label="smart_194_raw <= 21.5\ngini = 0.444\nsamples = 2\nvalue = [1, 2]"] ;
974 -> 975 ;
976 [label="gini = 0.0\nsamples = 1\nvalue = [1, 0]"] ;
975 -> 976 ;
977 [label="gini = 0.0\nsamples = 1\nvalue = [0, 2]"] ;
975 -> 977 ;
978 [label="gini = 0.0\nsamples = 3\nvalue = [4, 0]"] ;
974 -> 978 ;
979 [label="gini = 0.0\nsamples = 12933\nvalue = [20467, 0]"] ;
971 -> 979 ;
980 [label="gini = 0.0\nsamples = 68\nvalue = [103, 0]"] ;
970 -> 980 ;
981 [label="smart_9_raw <= 17975.5\ngini = 0.0\nsamples = 15480\nvalue = [24419, 5]"] ;
969 -> 981 ;
982 [label="gini = 0.0\nsamples = 4078\nvalue = [6466, 0]"] ;
981 -> 982 ;
983 [label="smart_188_raw <= 0.5\ngini = 0.001\nsamples = 11402\nvalue = [17953, 5]"] ;
981 -> 983 ;
984 [label="smart_194_raw <= 32.5\ngini = 0.001\nsamples = 11347\nvalue = [17861, 5]"] ;
983 -> 984 ;
985 [label="smart_9_raw <= 17977.0\ngini = 0.001\nsamples = 5304\nvalue = [8326, 5]"] ;
984 -> 985 ;
986 [label="gini = 0.444\nsamples = 2\nvalue = [4, 2]"] ;
985 -> 986 ;
987 [label="smart_194_raw <= 30.5\ngini = 0.001\nsamples = 5302\nvalue = [8322, 3]"] ;
985 -> 987 ;
988 [label="gini = 0.0\nsamples = 2905\nvalue = [4585, 0]"] ;
987 -> 988 ;
989 [label="smart_194_raw <= 31.5\ngini = 0.002\nsamples = 2397\nvalue = [3737, 3]"] ;
987 -> 989 ;
990 [label="smart_5_raw <= 22.5\ngini = 0.002\nsamples = 1422\nvalue = [2244, 2]"] ;
989 -> 990 ;
991 [label="gini = 0.0\nsamples = 681\nvalue = [1073, 0]"] ;
990 -> 991 ;
992 [label="smart_5_raw <= 24.5\ngini = 0.003\nsamples = 741\nvalue = [1171, 2]"] ;
990 -> 992 ;
993 [label="smart_9_raw <= 23322.0\ngini = 0.008\nsamples = 313\nvalue = [499, 2]"] ;
992 -> 993 ;
994 [label="gini = 0.0\nsamples = 188\nvalue = [289, 0]"] ;
993 -> 994 ;
995 [label="smart_9_raw <= 23334.0\ngini = 0.019\nsamples = 125\nvalue = [210, 2]"] ;
993 -> 995 ;
996 [label="gini = 0.0\nsamples = 1\nvalue = [0, 2]"] ;
995 -> 996 ;
997 [label="gini = 0.0\nsamples = 124\nvalue = [210, 0]"] ;
995 -> 997 ;
998 [label="gini = 0.0\nsamples = 428\nvalue = [672, 0]"] ;
992 -> 998 ;
999 [label="smart_5_raw <= 16.5\ngini = 0.001\nsamples = 975\nvalue = [1493, 1]"] ;
989 -> 999 ;
1000 [label="smart_9_raw <= 22641.5\ngini = 0.003\nsamples = 381\nvalue = [573, 1]"] ;
999 -> 1000 ;
1001 [label="gini = 0.0\nsamples = 236\nvalue = [367, 0]"] ;
1000 -> 1001 ;
1002 [label="smart_9_raw <= 22649.5\ngini = 0.01\nsamples = 145\nvalue = [206, 1]"] ;
1000 -> 1002 ;
1003 [label="gini = 0.0\nsamples = 1\nvalue = [0, 1]"] ;
1002 -> 1003 ;
1004 [label="gini = 0.0\nsamples = 144\nvalue = [206, 0]"] ;
1002 -> 1004 ;
1005 [label="gini = 0.0\nsamples = 594\nvalue = [920, 0]"] ;
999 -> 1005 ;
1006 [label="gini = 0.0\nsamples = 6043\nvalue = [9535, 0]"] ;
984 -> 1006 ;
1007 [label="gini = 0.0\nsamples = 55\nvalue = [92, 0]"] ;
983 -> 1007 ;
1008 [label="smart_194_raw <= 22.5\ngini = 0.0\nsamples = 33936\nvalue = [53889, 1]"] ;
968 -> 1008 ;
1009 [label="smart_188_raw <= 0.5\ngini = 0.0\nsamples = 4101\nvalue = [6569, 1]"] ;
1008 -> 1009 ;
1010 [label="smart_5_raw <= 16.5\ngini = 0.0\nsamples = 4093\nvalue = [6557, 1]"] ;
1009 -> 1010 ;
1011 [label="smart_194_raw <= 21.5\ngini = 0.001\nsamples = 1586\nvalue = [2498, 1]"] ;
1010 -> 1011 ;
1012 [label="gini = 0.0\nsamples = 960\nvalue = [1521, 0]"] ;
1011 -> 1012 ;
1013 [label="smart_9_raw <= 27935.5\ngini = 0.002\nsamples = 626\nvalue = [977, 1]"] ;
1011 -> 1013 ;
1014 [label="gini = 0.0\nsamples = 324\nvalue = [503, 0]"] ;
1013 -> 1014 ;
1015 [label="smart_9_raw <= 27940.0\ngini = 0.004\nsamples = 302\nvalue = [474, 1]"] ;
1013 -> 1015 ;
1016 [label="gini = 0.0\nsamples = 1\nvalue = [0, 1]"] ;
1015 -> 1016 ;
1017 [label="gini = 0.0\nsamples = 301\nvalue = [474, 0]"] ;
1015 -> 1017 ;
1018 [label="gini = 0.0\nsamples = 2507\nvalue = [4059, 0]"] ;
1010 -> 1018 ;
1019 [label="gini = 0.0\nsamples = 8\nvalue = [12, 0]"] ;
1009 -> 1019 ;
1020 [label="gini = 0.0\nsamples = 29835\nvalue = [47320, 0]"] ;
1008 -> 1020 ;
1021 [label="gini = 0.0\nsamples = 5466\nvalue = [8733, 0]"] ;
967 -> 1021 ;
1022 [label="smart_5_raw <= 25.5\ngini = 0.001\nsamples = 3999\nvalue = [6330, 2]"] ;
966 -> 1022 ;
1023 [label="smart_9_raw <= 21950.0\ngini = 0.001\nsamples = 2478\nvalue = [3917, 2]"] ;
1022 -> 1023 ;
1024 [label="smart_188_raw <= 4295065600.0\ngini = 0.002\nsamples = 1147\nvalue = [1801, 2]"] ;
1023 -> 1024 ;
1025 [label="smart_5_raw <= 24.5\ngini = 0.005\nsamples = 470\nvalue = [740, 2]"] ;
1024 -> 1025 ;
1026 [label="smart_187_raw <= 3.0\ngini = 0.003\nsamples = 468\nvalue = [738, 1]"] ;
1025 -> 1026 ;
1027 [label="gini = 0.0\nsamples = 375\nvalue = [581, 0]"] ;
1026 -> 1027 ;
1028 [label="smart_9_raw <= 21496.5\ngini = 0.013\nsamples = 93\nvalue = [157, 1]"] ;
1026 -> 1028 ;
1029 [label="gini = 0.0\nsamples = 87\nvalue = [149, 0]"] ;
1028 -> 1029 ;
1030 [label="smart_194_raw <= 29.0\ngini = 0.198\nsamples = 6\nvalue = [8, 1]"] ;
1028 -> 1030 ;
1031 [label="gini = 0.0\nsamples = 5\nvalue = [8, 0]"] ;
1030 -> 1031 ;
1032 [label="gini = 0.0\nsamples = 1\nvalue = [0, 1]"] ;
1030 -> 1032 ;
1033 [label="smart_9_raw <= 21931.0\ngini = 0.444\nsamples = 2\nvalue = [2, 1]"] ;
1025 -> 1033 ;
1034 [label="gini = 0.0\nsamples = 1\nvalue = [2, 0]"] ;
1033 -> 1034 ;
1035 [label="gini = 0.0\nsamples = 1\nvalue = [0, 1]"] ;
1033 -> 1035 ;
1036 [label="gini = 0.0\nsamples = 677\nvalue = [1061, 0]"] ;
1024 -> 1036 ;
1037 [label="gini = 0.0\nsamples = 1331\nvalue = [2116, 0]"] ;
1023 -> 1037 ;
1038 [label="gini = 0.0\nsamples = 1521\nvalue = [2413, 0]"] ;
1022 -> 1038 ;
1039 [label="smart_187_raw <= 1231.0\ngini = 0.01\nsamples = 119\nvalue = [192, 1]"] ;
965 -> 1039 ;
1040 [label="gini = 0.0\nsamples = 1\nvalue = [0, 1]"] ;
1039 -> 1040 ;
1041 [label="gini = 0.0\nsamples = 118\nvalue = [192, 0]"] ;
1039 -> 1041 ;
1042 [label="smart_9_raw <= 39385.5\ngini = 0.004\nsamples = 1321\nvalue = [2101, 4]"] ;
964 -> 1042 ;
1043 [label="gini = 0.0\nsamples = 1\nvalue = [0, 4]"] ;
1042 -> 1043 ;
1044 [label="gini = 0.0\nsamples = 1320\nvalue = [2101, 0]"] ;
1042 -> 1044 ;
1045 [label="smart_188_raw <= 0.5\ngini = 0.0\nsamples = 64618\nvalue = [101987, 20]"] ;
39 -> 1045 ;
1046 [label="smart_187_raw <= 62.0\ngini = 0.0\nsamples = 63301\nvalue = [99938, 17]"] ;
1045 -> 1046 ;
1047 [label="smart_194_raw <= 28.5\ngini = 0.0\nsamples = 63278\nvalue = [99905, 16]"] ;
1046 -> 1047 ;
1048 [label="smart_187_raw <= 20.5\ngini = 0.0\nsamples = 30416\nvalue = [48168, 12]"] ;
1047 -> 1048 ;
1049 [label="smart_187_raw <= 6.5\ngini = 0.0\nsamples = 29373\nvalue = [46552, 8]"] ;
1048 -> 1049 ;
1050 [label="smart_187_raw <= 5.5\ngini = 0.0\nsamples = 22104\nvalue = [35007, 8]"] ;
1049 -> 1050 ;
1051 [label="smart_9_raw <= 4298.0\ngini = 0.0\nsamples = 20672\nvalue = [32765, 5]"] ;
1050 -> 1051 ;
1052 [label="smart_194_raw <= 20.5\ngini = 0.011\nsamples = 120\nvalue = [180, 1]"] ;
1051 -> 1052 ;
1053 [label="smart_9_raw <= 4289.0\ngini = 0.5\nsamples = 2\nvalue = [1, 1]"] ;
1052 -> 1053 ;
1054 [label="gini = 0.0\nsamples = 1\nvalue = [1, 0]"] ;
1053 -> 1054 ;
1055 [label="gini = 0.0\nsamples = 1\nvalue = [0, 1]"] ;
1053 -> 1055 ;
1056 [label="gini = 0.0\nsamples = 118\nvalue = [179, 0]"] ;
1052 -> 1056 ;
1057 [label="smart_9_raw <= 16695.0\ngini = 0.0\nsamples = 20552\nvalue = [32585, 4]"] ;
1051 -> 1057 ;
1058 [label="smart_9_raw <= 16690.0\ngini = 0.002\nsamples = 2235\nvalue = [3514, 3]"] ;
1057 -> 1058 ;
1059 [label="smart_9_raw <= 14181.5\ngini = 0.001\nsamples = 2234\nvalue = [3514, 2]"] ;
1058 -> 1059 ;
1060 [label="gini = 0.0\nsamples = 1344\nvalue = [2143, 0]"] ;
1059 -> 1060 ;
1061 [label="smart_9_raw <= 14182.5\ngini = 0.003\nsamples = 890\nvalue = [1371, 2]"] ;
1059 -> 1061 ;
1062 [label="gini = 0.0\nsamples = 1\nvalue = [0, 2]"] ;
1061 -> 1062 ;
1063 [label="gini = 0.0\nsamples = 889\nvalue = [1371, 0]"] ;
1061 -> 1063 ;
1064 [label="gini = 0.0\nsamples = 1\nvalue = [0, 1]"] ;
1058 -> 1064 ;
1065 [label="smart_194_raw <= 23.5\ngini = 0.0\nsamples = 18317\nvalue = [29071, 1]"] ;
1057 -> 1065 ;
1066 [label="smart_5_raw <= 4.0\ngini = 0.0\nsamples = 10223\nvalue = [16212, 1]"] ;
1065 -> 1066 ;
1067 [label="gini = 0.0\nsamples = 9473\nvalue = [15034, 0]"] ;
1066 -> 1067 ;
1068 [label="smart_187_raw <= 3.5\ngini = 0.002\nsamples = 750\nvalue = [1178, 1]"] ;
1066 -> 1068 ;
1069 [label="smart_5_raw <= 12.0\ngini = 0.002\nsamples = 554\nvalue = [844, 1]"] ;
1068 -> 1069 ;
1070 [label="smart_187_raw <= 1.5\ngini = 0.008\nsamples = 164\nvalue = [242, 1]"] ;
1069 -> 1070 ;
1071 [label="gini = 0.0\nsamples = 53\nvalue = [79, 0]"] ;
1070 -> 1071 ;
1072 [label="smart_194_raw <= 22.5\ngini = 0.012\nsamples = 111\nvalue = [163, 1]"] ;
1070 -> 1072 ;
1073 [label="gini = 0.0\nsamples = 44\nvalue = [63, 0]"] ;
1072 -> 1073 ;
1074 [label="smart_9_raw <= 27894.0\ngini = 0.02\nsamples = 67\nvalue = [100, 1]"] ;
1072 -> 1074 ;
1075 [label="gini = 0.0\nsamples = 66\nvalue = [100, 0]"] ;
1074 -> 1075 ;
1076 [label="gini = 0.0\nsamples = 1\nvalue = [0, 1]"] ;
1074 -> 1076 ;
1077 [label="gini = 0.0\nsamples = 390\nvalue = [602, 0]"] ;
1069 -> 1077 ;
1078 [label="gini = 0.0\nsamples = 196\nvalue = [334, 0]"] ;
1068 -> 1078 ;
1079 [label="gini = 0.0\nsamples = 8094\nvalue = [12859, 0]"] ;
1065 -> 1079 ;
1080 [label="smart_9_raw <= 39404.5\ngini = 0.003\nsamples = 1432\nvalue = [2242, 3]"] ;
1050 -> 1080 ;
1081 [label="smart_194_raw <= 26.5\ngini = 0.006\nsamples = 598\nvalue = [952, 3]"] ;
1080 -> 1081 ;
1082 [label="gini = 0.0\nsamples = 330\nvalue = [531, 0]"] ;
1081 -> 1082 ;
1083 [label="smart_194_raw <= 27.5\ngini = 0.014\nsamples = 268\nvalue = [421, 3]"] ;
1081 -> 1083 ;
1084 [label="smart_5_raw <= 4.0\ngini = 0.03\nsamples = 124\nvalue = [197, 3]"] ;
1083 -> 1084 ;
1085 [label="smart_9_raw <= 39391.5\ngini = 0.127\nsamples = 27\nvalue = [41, 3]"] ;
1084 -> 1085 ;
1086 [label="gini = 0.0\nsamples = 26\nvalue = [41, 0]"] ;
1085 -> 1086 ;
1087 [label="gini = 0.0\nsamples = 1\nvalue = [0, 3]"] ;
1085 -> 1087 ;
1088 [label="gini = 0.0\nsamples = 97\nvalue = [156, 0]"] ;
1084 -> 1088 ;
1089 [label="gini = 0.0\nsamples = 144\nvalue = [224, 0]"] ;
1083 -> 1089 ;
1090 [label="gini = 0.0\nsamples = 834\nvalue = [1290, 0]"] ;
1080 -> 1090 ;
1091 [label="gini = 0.0\nsamples = 7269\nvalue = [11545, 0]"] ;
1049 -> 1091 ;
1092 [label="smart_9_raw <= 45338.5\ngini = 0.005\nsamples = 1043\nvalue = [1616, 4]"] ;
1048 -> 1092 ;
1093 [label="smart_187_raw <= 21.5\ngini = 0.003\nsamples = 917\nvalue = [1424, 2]"] ;
1092 -> 1093 ;
1094 [label="smart_194_raw <= 27.5\ngini = 0.011\nsamples = 227\nvalue = [356, 2]"] ;
1093 -> 1094 ;
1095 [label="gini = 0.0\nsamples = 208\nvalue = [328, 0]"] ;
1094 -> 1095 ;
1096 [label="smart_9_raw <= 39142.0\ngini = 0.124\nsamples = 19\nvalue = [28, 2]"] ;
1094 -> 1096 ;
1097 [label="smart_9_raw <= 38216.0\ngini = 0.48\nsamples = 3\nvalue = [3, 2]"] ;
1096 -> 1097 ;
1098 [label="gini = 0.0\nsamples = 2\nvalue = [3, 0]"] ;
1097 -> 1098 ;
1099 [label="gini = 0.0\nsamples = 1\nvalue = [0, 2]"] ;
1097 -> 1099 ;
1100 [label="gini = 0.0\nsamples = 16\nvalue = [25, 0]"] ;
1096 -> 1100 ;
1101 [label="gini = 0.0\nsamples = 690\nvalue = [1068, 0]"] ;
1093 -> 1101 ;
1102 [label="smart_9_raw <= 45348.0\ngini = 0.02\nsamples = 126\nvalue = [192, 2]"] ;
1092 -> 1102 ;
1103 [label="gini = 0.0\nsamples = 1\nvalue = [0, 2]"] ;
1102 -> 1103 ;
1104 [label="gini = 0.0\nsamples = 125\nvalue = [192, 0]"] ;
1102 -> 1104 ;
1105 [label="smart_5_raw <= 13.0\ngini = 0.0\nsamples = 32862\nvalue = [51737, 4]"] ;
1047 -> 1105 ;
1106 [label="smart_9_raw <= 3070.5\ngini = 0.0\nsamples = 29735\nvalue = [46830, 2]"] ;
1105 -> 1106 ;
1107 [label="smart_187_raw <= 1.5\ngini = 0.007\nsamples = 188\nvalue = [268, 1]"] ;
1106 -> 1107 ;
1108 [label="smart_9_raw <= 2976.0\ngini = 0.017\nsamples = 75\nvalue = [113, 1]"] ;
1107 -> 1108 ;
1109 [label="gini = 0.0\nsamples = 73\nvalue = [110, 0]"] ;
1108 -> 1109 ;
1110 [label="smart_194_raw <= 33.0\ngini = 0.375\nsamples = 2\nvalue = [3, 1]"] ;
1108 -> 1110 ;
1111 [label="gini = 0.0\nsamples = 1\nvalue = [3, 0]"] ;
1110 -> 1111 ;
1112 [label="gini = 0.0\nsamples = 1\nvalue = [0, 1]"] ;
1110 -> 1112 ;
1113 [label="gini = 0.0\nsamples = 113\nvalue = [155, 0]"] ;
1107 -> 1113 ;
1114 [label="smart_194_raw <= 34.5\ngini = 0.0\nsamples = 29547\nvalue = [46562, 1]"] ;
1106 -> 1114 ;
1115 [label="smart_194_raw <= 33.5\ngini = 0.0\nsamples = 15229\nvalue = [24040, 1]"] ;
1114 -> 1115 ;
1116 [label="gini = 0.0\nsamples = 13192\nvalue = [20872, 0]"] ;
1115 -> 1116 ;
1117 [label="smart_187_raw <= 8.5\ngini = 0.001\nsamples = 2037\nvalue = [3168, 1]"] ;
1115 -> 1117 ;
1118 [label="gini = 0.0\nsamples = 1775\nvalue = [2745, 0]"] ;
1117 -> 1118 ;
1119 [label="smart_5_raw <= 4.0\ngini = 0.005\nsamples = 262\nvalue = [423, 1]"] ;
1117 -> 1119 ;
1120 [label="smart_9_raw <= 44552.0\ngini = 0.005\nsamples = 258\nvalue = [418, 1]"] ;
1119 -> 1120 ;
1121 [label="gini = 0.0\nsamples = 211\nvalue = [353, 0]"] ;
1120 -> 1121 ;
1122 [label="smart_187_raw <= 10.5\ngini = 0.03\nsamples = 47\nvalue = [65, 1]"] ;
1120 -> 1122 ;
1123 [label="gini = 0.0\nsamples = 1\nvalue = [0, 1]"] ;
1122 -> 1123 ;
1124 [label="gini = 0.0\nsamples = 46\nvalue = [65, 0]"] ;
1122 -> 1124 ;
1125 [label="gini = 0.0\nsamples = 4\nvalue = [5, 0]"] ;
1119 -> 1125 ;
1126 [label="gini = 0.0\nsamples = 14318\nvalue = [22522, 0]"] ;
1114 -> 1126 ;
1127 [label="smart_194_raw <= 34.5\ngini = 0.001\nsamples = 3127\nvalue = [4907, 2]"] ;
1105 -> 1127 ;
1128 [label="gini = 0.0\nsamples = 1521\nvalue = [2398, 0]"] ;
1127 -> 1128 ;
1129 [label="smart_194_raw <= 35.5\ngini = 0.002\nsamples = 1606\nvalue = [2509, 2]"] ;
1127 -> 1129 ;
1130 [label="smart_187_raw <= 3.5\ngini = 0.018\nsamples = 150\nvalue = [218, 2]"] ;
1129 -> 1130 ;
1131 [label="smart_5_raw <= 20.0\ngini = 0.025\nsamples = 102\nvalue = [153, 2]"] ;
1130 -> 1131 ;
1132 [label="smart_9_raw <= 28831.0\ngini = 0.033\nsamples = 80\nvalue = [119, 2]"] ;
1131 -> 1132 ;
1133 [label="smart_9_raw <= 28807.5\ngini = 0.075\nsamples = 37\nvalue = [49, 2]"] ;
1132 -> 1133 ;
1134 [label="gini = 0.0\nsamples = 36\nvalue = [49, 0]"] ;
1133 -> 1134 ;
1135 [label="gini = 0.0\nsamples = 1\nvalue = [0, 2]"] ;
1133 -> 1135 ;
1136 [label="gini = 0.0\nsamples = 43\nvalue = [70, 0]"] ;
1132 -> 1136 ;
1137 [label="gini = 0.0\nsamples = 22\nvalue = [34, 0]"] ;
1131 -> 1137 ;
1138 [label="gini = 0.0\nsamples = 48\nvalue = [65, 0]"] ;
1130 -> 1138 ;
1139 [label="gini = 0.0\nsamples = 1456\nvalue = [2291, 0]"] ;
1129 -> 1139 ;
1140 [label="smart_9_raw <= 13896.0\ngini = 0.057\nsamples = 23\nvalue = [33, 1]"] ;
1046 -> 1140 ;
1141 [label="gini = 0.0\nsamples = 1\nvalue = [0, 1]"] ;
1140 -> 1141 ;
1142 [label="gini = 0.0\nsamples = 22\nvalue = [33, 0]"] ;
1140 -> 1142 ;
1143 [label="smart_187_raw <= 3.5\ngini = 0.003\nsamples = 1317\nvalue = [2049, 3]"] ;
1045 -> 1143 ;
1144 [label="gini = 0.0\nsamples = 660\nvalue = [1053, 0]"] ;
1143 -> 1144 ;
